{"gradients/graph_23linear.5.bias": {"_type": "histogram", "values": [2.0, 0.0, 2.0, 1.0, 0.0, 3.0, 3.0, 2.0, 10.0, 4.0, 6.0, 5.0, 4.0, 5.0, 1.0, 24.0, 0.0, 0.0, 0.0, 0.0, 1.0, 1.0, 1.0, 0.0, 2.0, 1.0, 2.0, 4.0, 3.0, 1.0, 0.0, 0.0, 2.0, 0.0, 0.0, 0.0, 0.0, 0.0, 1.0, 0.0, 0.0, 1.0, 0.0, 0.0, 0.0, 0.0, 0.0, 0.0, 0.0, 0.0, 0.0, 0.0, 0.0, 0.0, 0.0, 0.0, 0.0, 2.0, 0.0, 1.0, 0.0, 0.0, 0.0, 1.0], "bins": [-0.4723043441772461, -0.44589948654174805, -0.41949462890625, -0.39308977127075195, -0.3666849136352539, -0.34028005599975586, -0.3138751685619354, -0.2874703109264374, -0.26106545329093933, -0.23466059565544128, -0.20825573801994324, -0.1818508803844452, -0.15544599294662476, -0.1290411353111267, -0.10263627767562866, -0.07623142004013062, -0.04982656240463257, -0.02342170476913452, 0.0029831528663635254, 0.029388010501861572, 0.05579286813735962, 0.08219772577285767, 0.10860258340835571, 0.13500744104385376, 0.16141235828399658, 0.18781721591949463, 0.21422207355499268, 0.24062693119049072, 0.26703178882598877, 0.2934366464614868, 0.31984150409698486, 0.3462463617324829, 0.37265121936798096, 0.399056077003479, 0.42546093463897705, 0.4518657922744751, 0.47827064990997314, 0.5046755075454712, 0.5310803651809692, 0.5574852228164673, 0.5838900804519653, 0.6102949976921082, 0.6366998553276062, 0.6631047129631042, 0.6895095705986023, 0.7159144282341003, 0.7423192858695984, 0.7687241435050964, 0.7951290011405945, 0.8215338587760925, 0.8479387164115906, 0.8743435740470886, 0.9007484316825867, 0.9271533489227295, 0.9535582065582275, 0.9799630641937256, 1.0063679218292236, 1.0327727794647217, 1.0591776371002197, 1.0855824947357178, 1.1119873523712158, 1.1383922100067139, 1.164797067642212, 1.19120192527771, 1.217606782913208]}, "_timestamp": 1715780940.6353192, "gradients/graph_23linear.5.weight": {"_type": "histogram", "values": [2.0, 0.0, 2.0, 1.0, 0.0, 3.0, 3.0, 2.0, 10.0, 4.0, 8.0, 8.0, 10.0, 22.0, 21.0, 60.0, 64.0, 2739.0, 30.0, 13.0, 13.0, 9.0, 12.0, 2.0, 5.0, 1.0, 2.0, 5.0, 4.0, 3.0, 1.0, 1.0, 2.0, 0.0, 0.0, 2.0, 1.0, 0.0, 2.0, 0.0, 0.0, 1.0, 0.0, 0.0, 0.0, 0.0, 0.0, 0.0, 0.0, 0.0, 0.0, 0.0, 0.0, 0.0, 0.0, 0.0, 0.0, 2.0, 0.0, 1.0, 0.0, 0.0, 0.0, 1.0], "bins": [-13.586893081665039, -12.827298164367676, -12.067703247070312, -11.308107376098633, -10.548513412475586, -9.788917541503906, -9.029322624206543, -8.26972770690918, -7.510132789611816, -6.750537872314453, -5.99094295501709, -5.231348037719727, -4.471752166748047, -3.7121572494506836, -2.9525623321533203, -2.192967414855957, -1.4333724975585938, -0.6737775802612305, 0.08581733703613281, 0.8454122543334961, 1.6050071716308594, 2.364603042602539, 3.124197006225586, 3.8837928771972656, 4.643388748168945, 5.402982711791992, 6.162578582763672, 6.922172546386719, 7.681768417358398, 8.441362380981445, 9.200958251953125, 9.960552215576172, 10.720146179199219, 11.479742050170898, 12.239336013793945, 12.998931884765625, 13.758525848388672, 14.518121719360352, 15.277715682983398, 16.037311553955078, 16.796905517578125, 17.556501388549805, 18.316097259521484, 19.07569122314453, 19.83528709411621, 20.59488296508789, 21.354476928710938, 22.114070892333984, 22.873666763305664, 23.633262634277344, 24.39285659790039, 25.152450561523438, 25.912046432495117, 26.671642303466797, 27.431236267089844, 28.190832138061523, 28.950428009033203, 29.71002197265625, 30.469615936279297, 31.229211807250977, 31.988807678222656, 32.7484016418457, 33.50799560546875, 34.26759338378906, 35.02718734741211]}, "gradients/graph_23linear.3.bias": {"_type": "histogram", "values": [1.0, 0.0, 0.0, 0.0, 0.0, 0.0, 0.0, 0.0, 0.0, 0.0, 0.0, 0.0, 0.0, 0.0, 0.0, 0.0, 0.0, 0.0, 0.0, 0.0, 0.0, 0.0, 0.0, 0.0, 0.0, 1.0, 0.0, 0.0, 0.0, 0.0, 0.0, 0.0, 0.0, 0.0, 0.0, 0.0, 1.0, 0.0, 0.0, 0.0, 1.0, 0.0, 0.0, 0.0, 1.0, 0.0, 0.0, 0.0, 0.0, 0.0, 0.0, 0.0, 0.0, 0.0, 0.0, 0.0, 0.0, 0.0, 0.0, 0.0, 0.0, 0.0, 0.0, 27.0], "bins": [-16.842504501342773, -16.5793399810791, -16.31617546081543, -16.05301284790039, -15.789848327636719, -15.526683807373047, -15.263519287109375, -15.00035572052002, -14.737191200256348, -14.474027633666992, -14.21086311340332, -13.947698593139648, -13.684535026550293, -13.421370506286621, -13.158206939697266, -12.895042419433594, -12.631877899169922, -12.368714332580566, -12.105550765991211, -11.842386245727539, -11.579221725463867, -11.316057205200195, -11.05289363861084, -10.789730072021484, -10.526565551757812, -10.26340103149414, -10.000236511230469, -9.737072944641113, -9.473909378051758, -9.210744857788086, -8.947580337524414, -8.684416770935059, -8.421252250671387, -8.158087730407715, -7.894924163818359, -7.6317596435546875, -7.368595600128174, -7.10543155670166, -6.8422675132751465, -6.579103469848633, -6.315938949584961, -6.052774906158447, -5.789610862731934, -5.52644681930542, -5.263282775878906, -5.000118732452393, -4.736954212188721, -4.473790168762207, -4.210626125335693, -3.9474620819091797, -3.684297800064087, -3.4211337566375732, -3.1579694747924805, -2.894805431365967, -2.631641387939453, -2.3684771060943604, -2.1053130626678467, -1.8421489000320435, -1.5789847373962402, -1.3158206939697266, -1.0526565313339233, -0.7894923686981201, -0.5263282656669617, -0.26316413283348083, 0.0]}, "gradients/graph_23linear.3.weight": {"_type": "histogram", "values": [1.0, 0.0, 0.0, 0.0, 0.0, 0.0, 0.0, 0.0, 0.0, 0.0, 1.0, 0.0, 0.0, 0.0, 0.0, 0.0, 0.0, 0.0, 0.0, 0.0, 0.0, 0.0, 0.0, 0.0, 0.0, 1.0, 0.0, 1.0, 0.0, 0.0, 0.0, 1.0, 0.0, 0.0, 0.0, 0.0, 1.0, 1.0, 0.0, 1.0, 2.0, 0.0, 1.0, 0.0, 2.0, 0.0, 0.0, 1.0, 2.0, 1.0, 1.0, 0.0, 2.0, 1.0, 1.0, 2.0, 1.0, 0.0, 0.0, 0.0, 0.0, 0.0, 0.0, 999.0], "bins": [-425.22589111328125, -418.58172607421875, -411.9375915527344, -405.2934265136719, -398.6492614746094, -392.005126953125, -385.3609619140625, -378.716796875, -372.0726623535156, -365.4284973144531, -358.78436279296875, -352.14019775390625, -345.49603271484375, -338.85186767578125, -332.2077331542969, -325.5635681152344, -318.91943359375, -312.2752685546875, -305.631103515625, -298.9869384765625, -292.3428039550781, -285.6986389160156, -279.05450439453125, -272.41033935546875, -265.76617431640625, -259.12200927734375, -252.47787475585938, -245.83372497558594, -239.18955993652344, -232.54541015625, -225.90126037597656, -219.25709533691406, -212.61294555664062, -205.9687957763672, -199.3246307373047, -192.68048095703125, -186.0363311767578, -179.3921661376953, -172.74801635742188, -166.10386657714844, -159.459716796875, -152.8155517578125, -146.17140197753906, -139.52725219726562, -132.88308715820312, -126.23893737792969, -119.59477996826172, -112.95063018798828, -106.30647277832031, -99.66231536865234, -93.0181655883789, -86.37400817871094, -79.7298583984375, -73.08570098876953, -66.44154357910156, -59.79738998413086, -53.153236389160156, -46.50908279418945, -39.86492919921875, -33.22077178955078, -26.576618194580078, -19.932464599609375, -13.288309097290039, -6.6441545486450195, 0.0]}, "gradients/graph_23linear.0.bias": {"_type": "histogram", "values": [1.0, 0.0, 0.0, 0.0, 0.0, 0.0, 0.0, 0.0, 0.0, 0.0, 0.0, 0.0, 0.0, 0.0, 0.0, 0.0, 0.0, 0.0, 0.0, 1.0, 0.0, 0.0, 0.0, 0.0, 0.0, 0.0, 0.0, 0.0, 0.0, 0.0, 0.0, 0.0, 0.0, 0.0, 0.0, 0.0, 1.0, 0.0, 0.0, 0.0, 0.0, 27.0, 0.0, 0.0, 1.0, 0.0, 0.0, 0.0, 0.0, 0.0, 0.0, 0.0, 0.0, 0.0, 0.0, 0.0, 0.0, 0.0, 0.0, 0.0, 0.0, 0.0, 0.0, 1.0], "bins": [-36.2048454284668, -35.323280334472656, -34.441715240478516, -33.560150146484375, -32.678585052490234, -31.797019958496094, -30.915454864501953, -30.033889770507812, -29.152324676513672, -28.27075958251953, -27.38919448852539, -26.50762939453125, -25.626066207885742, -24.7445011138916, -23.86293601989746, -22.98137092590332, -22.09980583190918, -21.21824073791504, -20.3366756439209, -19.455110549926758, -18.573545455932617, -17.691980361938477, -16.810415267944336, -15.928850173950195, -15.047286987304688, -14.165721893310547, -13.284156799316406, -12.402591705322266, -11.521026611328125, -10.639461517333984, -9.757896423339844, -8.876331329345703, -7.99476432800293, -7.113199234008789, -6.231634140014648, -5.350069046020508, -4.468503952026367, -3.5869388580322266, -2.705373764038086, -1.8238086700439453, -0.9422435760498047, -0.060680389404296875, 0.8208847045898438, 1.7024497985839844, 2.584014892578125, 3.4655799865722656, 4.347145080566406, 5.228710174560547, 6.1102752685546875, 6.991840362548828, 7.873405456542969, 8.75497055053711, 9.63653564453125, 10.518099784851074, 11.399664878845215, 12.281229972839355, 13.162795066833496, 14.044360160827637, 14.925925254821777, 15.807489395141602, 16.689054489135742, 17.570619583129883, 18.452184677124023, 19.333749771118164, 20.215314865112305]}, "gradients/graph_23linear.0.weight": {"_type": "histogram", "values": [5.0, 2.0, 7.0, 2.0, 7.0, 5.0, 8.0, 4.0, 4.0, 7.0, 2.0, 4.0, 19.0, 7.0, 4.0, 15.0, 4.0, 9.0, 10.0, 6.0, 17.0, 10.0, 14.0, 6.0, 28.0, 21.0, 9.0, 3.0, 2.0, 4.0, 3.0, 3.0, 0.0, 17.0, 68.0, 47.0, 15.0, 3921.0, 29.0, 101.0, 20.0, 2.0, 1.0, 4.0, 2.0, 4.0, 1.0, 5.0, 5.0, 23.0, 12.0, 22.0, 9.0, 7.0, 12.0, 10.0, 7.0, 6.0, 3.0, 1.0, 1.0, 1.0, 0.0, 1.0], "bins": [-91.0604476928711, -88.6231918334961, -86.18592834472656, -83.74867248535156, -81.31141662597656, -78.87416076660156, -76.43689727783203, -73.99964141845703, -71.5623779296875, -69.1251220703125, -66.6878662109375, -64.2506103515625, -61.81334686279297, -59.37609100341797, -56.9388313293457, -54.5015754699707, -52.06431579589844, -49.62705612182617, -47.18980026245117, -44.752540588378906, -42.315284729003906, -39.87802505493164, -37.440765380859375, -35.003509521484375, -32.56624984741211, -30.128990173339844, -27.691734313964844, -25.254478454589844, -22.817214965820312, -20.379959106445312, -17.942703247070312, -15.505439758300781, -13.068183898925781, -10.630928039550781, -8.19366455078125, -5.75640869140625, -3.31915283203125, -0.8818893432617188, 1.5553665161132812, 3.9926223754882812, 6.429882049560547, 8.867141723632812, 11.304397583007812, 13.741657257080078, 16.178916931152344, 18.616172790527344, 21.05343246459961, 23.49068832397461, 25.927947998046875, 28.36520767211914, 30.80246353149414, 33.239723205566406, 35.676979064941406, 38.11423873901367, 40.55149841308594, 42.98875427246094, 45.4260139465332, 47.86327362060547, 50.30052947998047, 52.737789154052734, 55.175048828125, 57.6123046875, 60.049564361572266, 62.486820220947266, 64.92407989501953]}, "Linear loss (training)": 204.20823669433594, "_runtime": 226.26851534843445, "_step": 89, "Linear loss (validation)": 15.222031499834277, "Regret (validation)": 0.07741276970088516, "_wandb": {"runtime": 225}}