{"gradients/graph_13linear.5.bias": {"_type": "histogram", "values": [2.0, 1.0, 0.0, 3.0, 5.0, 6.0, 4.0, 7.0, 2.0, 2.0, 1.0, 28.0, 1.0, 0.0, 1.0, 1.0, 0.0, 1.0, 0.0, 1.0, 1.0, 1.0, 1.0, 0.0, 0.0, 1.0, 0.0, 0.0, 0.0, 0.0, 0.0, 0.0, 1.0, 1.0, 1.0, 2.0, 2.0, 5.0, 2.0, 4.0, 1.0, 2.0, 1.0, 0.0, 1.0, 1.0, 0.0, 0.0, 0.0, 0.0, 0.0, 0.0, 0.0, 0.0, 0.0, 0.0, 1.0, 0.0, 0.0, 0.0, 0.0, 0.0, 0.0, 1.0], "bins": [-0.43062084913253784, -0.41128432750701904, -0.39194780588150024, -0.37261125445365906, -0.35327473282814026, -0.33393821120262146, -0.3146016597747803, -0.2952651381492615, -0.2759286165237427, -0.2565920948982239, -0.23725555837154388, -0.2179190218448639, -0.1985825002193451, -0.1792459785938263, -0.1599094271659851, -0.1405729055404663, -0.12123638391494751, -0.10189986228942871, -0.08256334066390991, -0.06322678923606873, -0.04389026761054993, -0.024553745985031128, -0.005217194557189941, 0.014119327068328857, 0.033455848693847656, 0.052792370319366455, 0.07212889194488525, 0.09146541357040405, 0.11080199480056763, 0.13013851642608643, 0.14947503805160522, 0.16881155967712402, 0.18814802169799805, 0.20748454332351685, 0.22682106494903564, 0.24615758657455444, 0.26549410820007324, 0.2848306894302368, 0.3041672110557556, 0.3235037326812744, 0.3428402543067932, 0.362176775932312, 0.3815132975578308, 0.400849848985672, 0.4201863706111908, 0.4395228922367096, 0.4588594436645508, 0.4781959652900696, 0.4975324869155884, 0.5168690085411072, 0.536205530166626, 0.5555421113967896, 0.5748785734176636, 0.5942151546478271, 0.613551676273346, 0.6328881978988647, 0.6522247195243835, 0.6715612411499023, 0.6908977627754211, 0.7102342844009399, 0.7295708656311035, 0.7489073872566223, 0.7682439088821411, 0.7875804305076599, 0.8069169521331787]}, "_timestamp": 1715849717.2563045, "gradients/graph_13linear.5.weight": {"_type": "histogram", "values": [2.0, 1.0, 0.0, 3.0, 5.0, 6.0, 4.0, 7.0, 2.0, 2.0, 1.0, 28.0, 5.0, 4.0, 25.0, 42.0, 34.0, 118.0, 99.0, 231.0, 269.0, 130.0, 10874.0, 37.0, 90.0, 89.0, 43.0, 27.0, 31.0, 25.0, 12.0, 5.0, 5.0, 1.0, 2.0, 2.0, 5.0, 5.0, 2.0, 5.0, 3.0, 2.0, 1.0, 0.0, 1.0, 1.0, 0.0, 0.0, 0.0, 0.0, 0.0, 0.0, 0.0, 0.0, 0.0, 0.0, 1.0, 0.0, 0.0, 0.0, 0.0, 0.0, 0.0, 1.0], "bins": [-35.73014831542969, -34.125728607177734, -32.521305084228516, -30.916885375976562, -29.31246566772461, -27.708044052124023, -26.103622436523438, -24.499202728271484, -22.89478302001953, -21.290361404418945, -19.68593978881836, -18.081520080566406, -16.47709846496582, -14.872678756713867, -13.268257141113281, -11.663837432861328, -10.059415817260742, -8.454994201660156, -6.850574493408203, -5.246152877807617, -3.6417312622070312, -2.037311553955078, -0.432891845703125, 1.1715278625488281, 2.775951385498047, 4.38037109375, 5.984790802001953, 7.589214324951172, 9.193634033203125, 10.798053741455078, 12.402473449707031, 14.00689697265625, 15.611316680908203, 17.215736389160156, 18.820159912109375, 20.424579620361328, 22.02899932861328, 23.633419036865234, 25.237842559814453, 26.842262268066406, 28.44668197631836, 30.051105499267578, 31.65552520751953, 33.259944915771484, 34.86436462402344, 36.468788146972656, 38.07320785522461, 39.67762756347656, 41.28205108642578, 42.886470794677734, 44.49089050292969, 46.095314025878906, 47.699729919433594, 49.30415344238281, 50.908573150634766, 52.51299285888672, 54.11741638183594, 55.72183609008789, 57.326255798339844, 58.93067932128906, 60.535099029541016, 62.13951873779297, 63.74393844604492, 65.34835815429688, 66.9527816772461]}, "gradients/graph_13linear.3.bias": {"_type": "histogram", "values": [1.0, 0.0, 0.0, 0.0, 0.0, 0.0, 0.0, 0.0, 0.0, 0.0, 0.0, 0.0, 0.0, 0.0, 0.0, 0.0, 0.0, 0.0, 2.0, 1.0, 0.0, 2.0, 0.0, 0.0, 1.0, 1.0, 1.0, 0.0, 0.0, 1.0, 0.0, 2.0, 0.0, 1.0, 0.0, 1.0, 1.0, 0.0, 0.0, 0.0, 0.0, 0.0, 0.0, 1.0, 111.0, 0.0, 0.0, 0.0, 0.0, 0.0, 0.0, 0.0, 0.0, 0.0, 0.0, 0.0, 0.0, 0.0, 0.0, 0.0, 0.0, 0.0, 0.0, 1.0], "bins": [-2.8290979862213135, -2.766071319580078, -2.7030446529388428, -2.6400182247161865, -2.576991558074951, -2.513964891433716, -2.4509382247924805, -2.387911558151245, -2.3248848915100098, -2.2618584632873535, -2.198831796646118, -2.135805130004883, -2.0727784633636475, -2.009751796722412, -1.9467252492904663, -1.8836987018585205, -1.8206720352172852, -1.7576453685760498, -1.694618821144104, -1.6315921545028687, -1.5685656070709229, -1.5055389404296875, -1.4425122737884521, -1.3794857263565063, -1.316459059715271, -1.2534323930740356, -1.1904058456420898, -1.1273791790008545, -1.0643525123596191, -1.0013259649276733, -0.938299298286438, -0.8752727508544922, -0.8122460842132568, -0.7492194175720215, -0.6861928701400757, -0.6231662034988403, -0.5601396560668945, -0.4971129894256592, -0.43408632278442383, -0.371059775352478, -0.3080331087112427, -0.24500644207000732, -0.18197989463806152, -0.11895322799682617, -0.05592656135559082, 0.0070999860763549805, 0.07012665271759033, 0.13315320014953613, 0.19617986679077148, 0.25920647382736206, 0.32223308086395264, 0.385259747505188, 0.44828635454177856, 0.5113129615783691, 0.5743396282196045, 0.6373662352561951, 0.7003928422927856, 0.7634194493293762, 0.8264460563659668, 0.8894727230072021, 0.9524993300437927, 1.0155259370803833, 1.0785526037216187, 1.1415791511535645, 1.2046058177947998]}, "gradients/graph_13linear.3.weight": {"_type": "histogram", "values": [1.0, 0.0, 0.0, 0.0, 0.0, 0.0, 0.0, 0.0, 0.0, 0.0, 0.0, 0.0, 0.0, 0.0, 0.0, 0.0, 0.0, 0.0, 2.0, 1.0, 1.0, 2.0, 0.0, 0.0, 1.0, 1.0, 1.0, 0.0, 0.0, 1.0, 2.0, 4.0, 1.0, 1.0, 3.0, 1.0, 2.0, 2.0, 1.0, 1.0, 2.0, 0.0, 7.0, 7.0, 16336.0, 0.0, 1.0, 0.0, 0.0, 0.0, 0.0, 0.0, 0.0, 0.0, 0.0, 1.0, 0.0, 0.0, 0.0, 0.0, 0.0, 0.0, 0.0, 1.0], "bins": [-302.56939697265625, -295.8287658691406, -289.088134765625, -282.34747314453125, -275.6068420410156, -268.8662109375, -262.12554931640625, -255.38491821289062, -248.644287109375, -241.90365600585938, -235.1630096435547, -228.42236328125, -221.68173217773438, -214.94110107421875, -208.20045471191406, -201.45980834960938, -194.71917724609375, -187.97854614257812, -181.23789978027344, -174.49725341796875, -167.75662231445312, -161.0159912109375, -154.2753448486328, -147.53469848632812, -140.7940673828125, -134.05343627929688, -127.31278991699219, -120.5721435546875, -113.83151245117188, -107.09088134765625, -100.35023498535156, -93.60958862304688, -86.86895751953125, -80.12832641601562, -73.38768005371094, -66.64703369140625, -59.906402587890625, -53.165771484375, -46.42512512207031, -39.684478759765625, -32.94384765625, -26.203216552734375, -19.462570190429688, -12.721923828125, -5.981292724609375, 0.75933837890625, 7.4999847412109375, 14.240623474121094, 20.98126220703125, 27.721900939941406, 34.46253967285156, 41.20317840576172, 47.943817138671875, 54.68445587158203, 61.42509460449219, 68.16573333740234, 74.9063720703125, 81.64701080322266, 88.38764953613281, 95.12828826904297, 101.86892700195312, 108.60956573486328, 115.35020446777344, 122.0908432006836, 128.83148193359375]}, "gradients/graph_13linear.0.bias": {"_type": "histogram", "values": [1.0, 0.0, 0.0, 0.0, 0.0, 0.0, 0.0, 0.0, 0.0, 0.0, 0.0, 0.0, 0.0, 0.0, 0.0, 1.0, 0.0, 0.0, 0.0, 0.0, 0.0, 0.0, 0.0, 0.0, 0.0, 0.0, 0.0, 0.0, 0.0, 0.0, 0.0, 0.0, 0.0, 0.0, 0.0, 0.0, 0.0, 0.0, 0.0, 0.0, 0.0, 0.0, 0.0, 0.0, 0.0, 0.0, 125.0, 0.0, 0.0, 0.0, 0.0, 0.0, 0.0, 0.0, 0.0, 0.0, 0.0, 0.0, 0.0, 0.0, 0.0, 0.0, 0.0, 1.0], "bins": [-31.216209411621094, -30.53888702392578, -29.86156463623047, -29.184242248535156, -28.506919860839844, -27.82959747314453, -27.15227508544922, -26.474950790405273, -25.79762840270996, -25.12030601501465, -24.442983627319336, -23.765661239624023, -23.08833885192871, -22.4110164642334, -21.733692169189453, -21.05636978149414, -20.379047393798828, -19.701725006103516, -19.024402618408203, -18.34708023071289, -17.669757843017578, -16.992435455322266, -16.315113067626953, -15.63779067993164, -14.960468292236328, -14.283145904541016, -13.605823516845703, -12.928499221801758, -12.251176834106445, -11.573854446411133, -10.89653205871582, -10.219209671020508, -9.541888236999512, -8.8645658493042, -8.187243461608887, -7.509921073913574, -6.832598686218262, -6.155276298522949, -5.477952003479004, -4.800629615783691, -4.123307228088379, -3.4459848403930664, -2.768662452697754, -2.0913400650024414, -1.414017677307129, -0.7366952896118164, -0.0593719482421875, 0.617950439453125, 1.2952728271484375, 1.97259521484375, 2.6499176025390625, 3.3272409439086914, 4.004563331604004, 4.681885719299316, 5.359208106994629, 6.0365309715271, 6.713853359222412, 7.391175746917725, 8.068498611450195, 8.745820999145508, 9.42314338684082, 10.100465774536133, 10.777789115905762, 11.455111503601074, 12.132433891296387]}, "gradients/graph_13linear.0.weight": {"_type": "histogram", "values": [1.0, 1.0, 0.0, 0.0, 7.0, 3.0, 2.0, 3.0, 4.0, 4.0, 8.0, 4.0, 5.0, 5.0, 3.0, 9.0, 5.0, 5.0, 4.0, 14.0, 6.0, 6.0, 5.0, 1.0, 3.0, 2.0, 1.0, 3.0, 2.0, 8.0, 10.0, 3.0, 16.0, 9.0, 11.0, 19.0, 20.0, 17.0, 18013.0, 13.0, 21.0, 29.0, 15.0, 15.0, 9.0, 10.0, 8.0, 12.0, 18.0, 12.0, 11.0, 4.0, 5.0, 1.0, 1.0, 1.0, 2.0, 0.0, 0.0, 1.0, 1.0, 0.0, 0.0, 1.0], "bins": [-67.1214370727539, -65.35847473144531, -63.59551239013672, -61.832550048828125, -60.069583892822266, -58.30662155151367, -56.54365921020508, -54.780696868896484, -53.017730712890625, -51.25476837158203, -49.49180603027344, -47.728843688964844, -45.96588134765625, -44.202919006347656, -42.43995666503906, -40.6769905090332, -38.91402816772461, -37.151065826416016, -35.388099670410156, -33.62513732910156, -31.86217498779297, -30.099212646484375, -28.33625030517578, -26.573287963867188, -24.810325622558594, -23.047359466552734, -21.28439712524414, -19.521434783935547, -17.758472442626953, -15.99551010131836, -14.2325439453125, -12.469581604003906, -10.706619262695312, -8.943656921386719, -7.180694580078125, -5.417728424072266, -3.654766082763672, -1.8918037414550781, -0.12884140014648438, 1.6341209411621094, 3.3970870971679688, 5.1600494384765625, 6.923011779785156, 8.68597412109375, 10.448936462402344, 12.211898803710938, 13.974863052368164, 15.73782730102539, 17.500789642333984, 19.263751983642578, 21.026716232299805, 22.7896785736084, 24.552642822265625, 26.31560516357422, 28.078567504882812, 29.841529846191406, 31.604494094848633, 33.36745834350586, 35.13042068481445, 36.89338302612305, 38.65634536743164, 40.4193115234375, 42.182273864746094, 43.94523620605469, 45.70819854736328]}, "Linear loss (training)": 196.96063232421875, "_runtime": 356.21605157852173, "_step": 59, "Linear loss (validation)": 34.89456264657685, "Regret (validation)": 0.16056176174791417, "_wandb": {"runtime": 355}}