{"gradients/graph_16linear.3.bias": {"_type": "histogram", "values": [2.0, 2.0, 2.0, 3.0, 3.0, 3.0, 4.0, 3.0, 2.0, 2.0, 1.0, 5.0, 0.0, 0.0, 0.0, 0.0, 1.0, 20.0, 29.0, 2.0, 1.0, 0.0, 2.0, 1.0, 1.0, 2.0, 2.0, 1.0, 2.0, 0.0, 0.0, 0.0, 0.0, 0.0, 0.0, 0.0, 0.0, 0.0, 0.0, 0.0, 0.0, 0.0, 0.0, 0.0, 0.0, 0.0, 2.0, 0.0, 0.0, 2.0, 5.0, 1.0, 2.0, 2.0, 3.0, 1.0, 1.0, 1.0, 1.0, 0.0, 1.0, 1.0, 0.0, 1.0], "bins": [-0.3919406533241272, -0.3794535994529724, -0.3669665455818176, -0.35447949171066284, -0.34199240803718567, -0.3295053541660309, -0.3170183002948761, -0.3045312464237213, -0.29204416275024414, -0.27955710887908936, -0.26707005500793457, -0.2545830011367798, -0.242095947265625, -0.22960887849330902, -0.21712182462215424, -0.20463475584983826, -0.19214770197868347, -0.1796606481075287, -0.1671735793352127, -0.15468652546405792, -0.14219945669174194, -0.12971240282058716, -0.11722534894943237, -0.10473829507827759, -0.0922512412071228, -0.07976415753364563, -0.06727710366249084, -0.05479004979133606, -0.042302995920181274, -0.02981594204902649, -0.017328858375549316, -0.004841804504394531, 0.007645249366760254, 0.02013230323791504, 0.032619357109069824, 0.045106440782547, 0.05759349465370178, 0.07008054852485657, 0.08256760239601135, 0.09505465626716614, 0.10754173994064331, 0.1200287938117981, 0.13251584768295288, 0.14500290155410767, 0.15748995542526245, 0.16997702419757843, 0.18246407806873322, 0.1949511468410492, 0.20743820071220398, 0.21992525458335876, 0.23241232335567474, 0.24489937722682953, 0.2573864459991455, 0.2698734998703003, 0.2823605537414551, 0.29484760761260986, 0.30733466148376465, 0.3198217451572418, 0.3323087990283966, 0.3447958528995514, 0.3572829067707062, 0.36976999044418335, 0.38225704431533813, 0.3947440981864929, 0.4072311520576477]}, "_timestamp": 1715868893.1598854, "gradients/graph_16linear.3.weight": {"_type": "histogram", "values": [2.0, 2.0, 2.0, 3.0, 3.0, 3.0, 4.0, 3.0, 4.0, 4.0, 5.0, 9.0, 4.0, 5.0, 3.0, 2.0, 6.0, 22.0, 39.0, 21.0, 33.0, 74.0, 30.0, 19.0, 28.0, 176.0, 126.0, 46.0, 236.0, 98.0, 42.0, 6362.0, 0.0, 17.0, 18.0, 36.0, 28.0, 23.0, 15.0, 30.0, 20.0, 11.0, 9.0, 7.0, 4.0, 7.0, 5.0, 2.0, 3.0, 4.0, 6.0, 2.0, 3.0, 3.0, 3.0, 2.0, 1.0, 1.0, 1.0, 0.0, 1.0, 1.0, 0.0, 1.0], "bins": [-14.055196762084961, -13.607404708862305, -13.159611701965332, -12.711819648742676, -12.264026641845703, -11.816234588623047, -11.36844253540039, -10.920649528503418, -10.472856521606445, -10.025064468383789, -9.577272415161133, -9.12947940826416, -8.681687355041504, -8.233894348144531, -7.786102294921875, -7.3383097648620605, -6.890517234802246, -6.442724704742432, -5.994932174682617, -5.547140121459961, -5.099347114562988, -4.651555061340332, -4.203762054443359, -3.755970001220703, -3.308177947998047, -2.860384941101074, -2.412592887878418, -1.9647998809814453, -1.517007827758789, -1.0692148208618164, -0.6214227676391602, -0.1736297607421875, 0.27416324615478516, 0.7219552993774414, 1.169748306274414, 1.6175403594970703, 2.065333366394043, 2.513125419616699, 2.960918426513672, 3.408710479736328, 3.856503486633301, 4.304295539855957, 4.752087593078613, 5.199880599975586, 5.647672653198242, 6.095465660095215, 6.543257713317871, 6.9910502433776855, 7.4388427734375, 7.8866353034973145, 8.334427833557129, 8.782220840454102, 9.230012893676758, 9.677804946899414, 10.12559700012207, 10.573390007019043, 11.021183013916016, 11.468975067138672, 11.916767120361328, 12.3645601272583, 12.812352180480957, 13.26014518737793, 13.707937240600586, 14.155730247497559, 14.603522300720215]}, "gradients/graph_16linear.0.bias": {"_type": "histogram", "values": [1.0, 1.0, 0.0, 0.0, 0.0, 0.0, 0.0, 0.0, 2.0, 1.0, 1.0, 0.0, 1.0, 0.0, 1.0, 0.0, 0.0, 1.0, 0.0, 0.0, 0.0, 0.0, 0.0, 1.0, 0.0, 1.0, 0.0, 0.0, 0.0, 0.0, 0.0, 0.0, 0.0, 0.0, 0.0, 0.0, 0.0, 0.0, 0.0, 0.0, 0.0, 0.0, 0.0, 0.0, 0.0, 0.0, 0.0, 0.0, 0.0, 0.0, 0.0, 0.0, 0.0, 0.0, 0.0, 0.0, 0.0, 0.0, 0.0, 0.0, 0.0, 0.0, 0.0, 53.0], "bins": [-20.328746795654297, -20.011110305786133, -19.69347381591797, -19.375837326049805, -19.05820083618164, -18.740562438964844, -18.42292594909668, -18.105289459228516, -17.78765296936035, -17.470016479492188, -17.152379989624023, -16.83474349975586, -16.517107009887695, -16.19947052001953, -15.881834030151367, -15.564196586608887, -15.246560096740723, -14.928923606872559, -14.611286163330078, -14.293649673461914, -13.97601318359375, -13.658376693725586, -13.340740203857422, -13.023103713989258, -12.705467224121094, -12.38783073425293, -12.07019329071045, -11.752556800842285, -11.434920310974121, -11.117283821105957, -10.799646377563477, -10.482009887695312, -10.164373397827148, -9.846736907958984, -9.52910041809082, -9.21146297454834, -8.893826484680176, -8.576189994812012, -8.258553504943848, -7.940916538238525, -7.623280048370361, -7.305643558502197, -6.988006591796875, -6.670370101928711, -6.352733612060547, -6.035096645355225, -5.7174601554870605, -5.399823188781738, -5.082186698913574, -4.76455020904541, -4.446913242340088, -4.129276752471924, -3.8116400241851807, -3.4940032958984375, -3.1763668060302734, -2.8587300777435303, -2.541093349456787, -2.223456621170044, -1.9058200120925903, -1.5881834030151367, -1.2705466747283936, -0.9529100060462952, -0.6352733373641968, -0.3176366686820984, 0.0]}, "gradients/graph_16linear.0.weight": {"_type": "histogram", "values": [4.0, 0.0, 2.0, 9.0, 3.0, 6.0, 11.0, 7.0, 7.0, 11.0, 12.0, 17.0, 20.0, 16.0, 26.0, 17.0, 22.0, 11.0, 5.0, 5.0, 6.0, 6.0, 21.0, 17.0, 3.0, 7654.0, 33.0, 26.0, 35.0, 67.0, 55.0, 60.0, 52.0, 48.0, 39.0, 28.0, 35.0, 33.0, 35.0, 29.0, 39.0, 30.0, 46.0, 40.0, 36.0, 44.0, 43.0, 49.0, 44.0, 48.0, 36.0, 34.0, 30.0, 39.0, 34.0, 24.0, 46.0, 12.0, 13.0, 4.0, 13.0, 13.0, 4.0, 2.0], "bins": [-18.90137481689453, -18.174074172973633, -17.446773529052734, -16.719472885131836, -15.992172241210938, -15.264871597290039, -14.537571907043457, -13.810271263122559, -13.08297061920166, -12.355669975280762, -11.628369331359863, -10.901068687438965, -10.173768997192383, -9.446468353271484, -8.719167709350586, -7.9918670654296875, -7.264566421508789, -6.537265777587891, -5.809965133666992, -5.082664489746094, -4.355363845825195, -3.6280641555786133, -2.9007625579833984, -2.1734619140625, -1.4461631774902344, -0.7188625335693359, 0.0084381103515625, 0.7357387542724609, 1.4630393981933594, 2.190340042114258, 2.9176406860351562, 3.6449413299560547, 4.372243881225586, 5.099544525146484, 5.826845169067383, 6.554145812988281, 7.28144645690918, 8.008747100830078, 8.736047744750977, 9.463348388671875, 10.190649032592773, 10.917947769165039, 11.645248413085938, 12.372550010681152, 13.099849700927734, 13.827150344848633, 14.554450988769531, 15.28175163269043, 16.009052276611328, 16.736352920532227, 17.463653564453125, 18.190954208374023, 18.918254852294922, 19.645553588867188, 20.37285614013672, 21.100154876708984, 21.827457427978516, 22.55475616455078, 23.282058715820312, 24.009357452392578, 24.736658096313477, 25.463958740234375, 26.191259384155273, 26.918560028076172, 27.64586067199707]}, "Linear loss (training)": 17.154901258155135, "_runtime": 163.4601354598999, "_step": 47, "Linear loss (validation)": 21.567930869105588, "Regret (validation)": 0.1226988054628014, "_wandb": {"runtime": 162}}