{"gradients/graph_25linear.5.bias": {"_type": "histogram", "values": [1.0, 0.0, 2.0, 2.0, 0.0, 0.0, 5.0, 2.0, 2.0, 2.0, 2.0, 7.0, 11.0, 6.0, 5.0, 2.0, 6.0, 5.0, 2.0, 1.0, 21.0, 5.0, 0.0, 0.0, 1.0, 0.0, 0.0, 0.0, 0.0, 0.0, 0.0, 0.0, 1.0, 0.0, 0.0, 0.0, 0.0, 0.0, 0.0, 0.0, 0.0, 1.0, 0.0, 0.0, 0.0, 0.0, 0.0, 0.0, 0.0, 0.0, 0.0, 1.0, 0.0, 1.0, 0.0, 0.0, 0.0, 0.0, 0.0, 0.0, 0.0, 1.0, 0.0, 1.0], "bins": [-0.31276172399520874, -0.2917919456958771, -0.2708221673965454, -0.24985240399837494, -0.22888262569904327, -0.2079128473997116, -0.18694308400154114, -0.16597330570220947, -0.1450035274028778, -0.12403374910354614, -0.10306397080421448, -0.082094207406044, -0.061124444007873535, -0.04015466570854187, -0.019184887409210205, 0.00178489089012146, 0.022754669189453125, 0.04372444748878479, 0.06469422578811646, 0.08566400408744812, 0.10663378238677979, 0.12760353088378906, 0.14857330918312073, 0.1695430874824524, 0.19051283597946167, 0.21148264408111572, 0.232452392578125, 0.25342220067977905, 0.27439194917678833, 0.2953617572784424, 0.31633150577545166, 0.3373013138771057, 0.3582710027694702, 0.3792407512664795, 0.40021055936813354, 0.4211803078651428, 0.4421501159667969, 0.46311986446380615, 0.4840896725654602, 0.5050594210624695, 0.5260292291641235, 0.5469989776611328, 0.5679687261581421, 0.5889385342597961, 0.6099082827568054, 0.6308780908584595, 0.6518478393554688, 0.672817587852478, 0.6937873959541321, 0.7147572040557861, 0.7357269525527954, 0.7566967010498047, 0.7776665091514587, 0.798636257648468, 0.8196060657501221, 0.8405758142471313, 0.8615455627441406, 0.8825153708457947, 0.9034851789474487, 0.924454927444458, 0.9454246759414673, 0.9663944840431213, 0.9873642325401306, 1.0083340406417847, 1.029303789138794]}, "_timestamp": 1715781199.4846842, "gradients/graph_25linear.5.weight": {"_type": "histogram", "values": [1.0, 0.0, 2.0, 2.0, 0.0, 0.0, 5.0, 2.0, 3.0, 4.0, 4.0, 13.0, 16.0, 32.0, 11891.0, 209.0, 20.0, 35.0, 7.0, 3.0, 21.0, 6.0, 0.0, 0.0, 1.0, 1.0, 0.0, 0.0, 0.0, 1.0, 1.0, 0.0, 1.0, 0.0, 2.0, 0.0, 0.0, 0.0, 0.0, 0.0, 0.0, 1.0, 0.0, 0.0, 0.0, 0.0, 0.0, 0.0, 0.0, 0.0, 0.0, 1.0, 0.0, 1.0, 0.0, 0.0, 0.0, 0.0, 0.0, 0.0, 0.0, 1.0, 0.0, 1.0], "bins": [-34.25377655029297, -31.9571590423584, -29.660541534423828, -27.36392593383789, -25.06730842590332, -22.77069091796875, -20.474075317382812, -18.177457809448242, -15.880840301513672, -13.584222793579102, -11.287605285644531, -8.990989685058594, -6.694372177124023, -4.397754669189453, -2.1011390686035156, 0.1954803466796875, 2.492095947265625, 4.7887115478515625, 7.085330963134766, 9.381946563720703, 11.678565979003906, 13.975181579589844, 16.27179718017578, 18.568416595458984, 20.865032196044922, 23.16164779663086, 25.458267211914062, 27.7548828125, 30.051498413085938, 32.348114013671875, 34.644737243652344, 36.94135284423828, 39.23797607421875, 41.53459167480469, 43.831207275390625, 46.127830505371094, 48.42444610595703, 50.72106170654297, 53.017677307128906, 55.31429672241211, 57.61091232299805, 59.907527923583984, 62.20414733886719, 64.50076293945312, 66.79737854003906, 69.093994140625, 71.39060974121094, 73.6872329711914, 75.98384857177734, 78.28046417236328, 80.57708740234375, 82.87370300292969, 85.17031860351562, 87.46693420410156, 89.7635498046875, 92.06016540527344, 94.35678100585938, 96.65340423583984, 98.95001983642578, 101.24663543701172, 103.54325103759766, 105.8398666381836, 108.13648986816406, 110.43310546875, 112.72972106933594]}, "gradients/graph_25linear.3.bias": {"_type": "histogram", "values": [1.0, 0.0, 0.0, 0.0, 0.0, 0.0, 0.0, 0.0, 0.0, 0.0, 0.0, 0.0, 0.0, 0.0, 0.0, 0.0, 0.0, 0.0, 0.0, 0.0, 0.0, 0.0, 0.0, 0.0, 0.0, 0.0, 0.0, 0.0, 0.0, 0.0, 1.0, 0.0, 0.0, 0.0, 0.0, 0.0, 1.0, 0.0, 1.0, 0.0, 0.0, 0.0, 0.0, 0.0, 1.0, 0.0, 120.0, 0.0, 0.0, 0.0, 0.0, 1.0, 0.0, 1.0, 0.0, 0.0, 0.0, 0.0, 0.0, 0.0, 0.0, 0.0, 0.0, 1.0], "bins": [-2.5702059268951416, -2.5151569843292236, -2.4601082801818848, -2.405059337615967, -2.350010395050049, -2.294961452484131, -2.239912748336792, -2.184863805770874, -2.129814863204956, -2.074765920639038, -2.019717216491699, -1.9646682739257812, -1.9096193313598633, -1.8545705080032349, -1.7995216846466064, -1.7444727420806885, -1.6894237995147705, -1.634374976158142, -1.5793261528015137, -1.5242772102355957, -1.4692283868789673, -1.4141794443130493, -1.359130620956421, -1.304081678390503, -1.2490328550338745, -1.1939839124679565, -1.1389350891113281, -1.0838861465454102, -1.0288373231887817, -0.9737883806228638, -0.9187395572662354, -0.8636906147003174, -0.8086418509483337, -0.7535930275917053, -0.6985440850257874, -0.6434952616691589, -0.588446319103241, -0.5333974957466125, -0.4783485531806946, -0.42329972982406616, -0.3682507872581482, -0.3132019639015198, -0.2581530213356018, -0.2031041979789734, -0.14805525541305542, -0.093006432056427, -0.03795754909515381, 0.017091333866119385, 0.07214021682739258, 0.12718909978866577, 0.18223798274993896, 0.23728686571121216, 0.29233574867248535, 0.34738463163375854, 0.40243351459503174, 0.45748236775398254, 0.5125312805175781, 0.5675801038742065, 0.6226290464401245, 0.6776778697967529, 0.7327267527580261, 0.7877756357192993, 0.8428245186805725, 0.8978734016418457, 0.9529222846031189]}, "gradients/graph_25linear.3.weight": {"_type": "histogram", "values": [1.0, 0.0, 0.0, 0.0, 0.0, 0.0, 0.0, 0.0, 0.0, 0.0, 0.0, 0.0, 0.0, 0.0, 0.0, 0.0, 0.0, 0.0, 0.0, 0.0, 0.0, 0.0, 0.0, 0.0, 1.0, 0.0, 1.0, 0.0, 2.0, 0.0, 1.0, 0.0, 0.0, 0.0, 0.0, 3.0, 2.0, 1.0, 2.0, 3.0, 2.0, 0.0, 9.0, 6.0, 12.0, 12.0, 16286.0, 13.0, 9.0, 6.0, 5.0, 1.0, 0.0, 3.0, 2.0, 0.0, 0.0, 0.0, 0.0, 0.0, 0.0, 0.0, 0.0, 1.0], "bins": [-223.10952758789062, -218.33094787597656, -213.5523681640625, -208.77378845214844, -203.99520874023438, -199.21664428710938, -194.4380645751953, -189.65948486328125, -184.8809051513672, -180.10232543945312, -175.32374572753906, -170.545166015625, -165.7666015625, -160.98800659179688, -156.20944213867188, -151.4308624267578, -146.65228271484375, -141.8737030029297, -137.09512329101562, -132.31655883789062, -127.53797149658203, -122.75939178466797, -117.98081970214844, -113.20223999023438, -108.42366027832031, -103.64508056640625, -98.86650085449219, -94.08792114257812, -89.30935668945312, -84.53077697753906, -79.752197265625, -74.97361755371094, -70.19503021240234, -65.41645050048828, -60.63787078857422, -55.859291076660156, -51.080711364746094, -46.302146911621094, -41.52356719970703, -36.74498748779297, -31.966407775878906, -27.187828063964844, -22.40924835205078, -17.63067626953125, -12.852096557617188, -8.073516845703125, -3.2949447631835938, 1.4836349487304688, 6.262214660644531, 11.040794372558594, 15.819374084472656, 20.597946166992188, 25.37652587890625, 30.155105590820312, 34.93368148803711, 39.712257385253906, 44.49083709716797, 49.26941680908203, 54.04799270629883, 58.826568603515625, 63.60514831542969, 68.38372802734375, 73.16230773925781, 77.94087982177734, 82.7194595336914]}, "gradients/graph_25linear.0.bias": {"_type": "histogram", "values": [1.0, 0.0, 0.0, 0.0, 0.0, 0.0, 0.0, 2.0, 0.0, 0.0, 0.0, 0.0, 1.0, 1.0, 0.0, 0.0, 0.0, 0.0, 0.0, 0.0, 0.0, 0.0, 0.0, 0.0, 0.0, 0.0, 1.0, 0.0, 0.0, 1.0, 0.0, 0.0, 1.0, 0.0, 0.0, 2.0, 1.0, 0.0, 0.0, 0.0, 1.0, 1.0, 0.0, 0.0, 0.0, 0.0, 0.0, 0.0, 0.0, 0.0, 0.0, 1.0, 1.0, 0.0, 112.0, 0.0, 0.0, 0.0, 0.0, 0.0, 0.0, 0.0, 0.0, 1.0], "bins": [-6.175990581512451, -6.063453197479248, -5.950916290283203, -5.83837890625, -5.725841522216797, -5.613304138183594, -5.500767230987549, -5.388229846954346, -5.275692939758301, -5.163155555725098, -5.0506181716918945, -4.938080787658691, -4.8255438804626465, -4.713006496429443, -4.600469589233398, -4.487932205200195, -4.375394821166992, -4.262857437133789, -4.150320053100586, -4.037783145904541, -3.925245761871338, -3.812708616256714, -3.70017147064209, -3.5876340866088867, -3.4750969409942627, -3.3625597953796387, -3.2500224113464355, -3.1374852657318115, -3.0249481201171875, -2.9124107360839844, -2.7998735904693604, -2.6873362064361572, -2.574799060821533, -2.46226167678833, -2.349724292755127, -2.237187385559082, -2.124650001525879, -2.012112617492676, -1.8995755910873413, -1.7870382070541382, -1.6745010614395142, -1.5619639158248901, -1.449426531791687, -1.336889386177063, -1.224352240562439, -1.1118148565292358, -0.9992777109146118, -0.8867404460906982, -0.7742031812667847, -0.6616659164428711, -0.5491286516189575, -0.4365915060043335, -0.3240542411804199, -0.21151697635650635, -0.09897983074188232, 0.01355743408203125, 0.12609469890594482, 0.2386319637298584, 0.3511691689491272, 0.463706374168396, 0.5762436389923096, 0.6887809038162231, 0.8013181090354919, 0.9138553142547607, 1.0263925790786743]}, "gradients/graph_25linear.0.weight": {"_type": "histogram", "values": [5.0, 2.0, 7.0, 2.0, 8.0, 13.0, 16.0, 16.0, 15.0, 34.0, 32.0, 23.0, 45.0, 40.0, 20.0, 59.0, 40.0, 29.0, 78.0, 31.0, 56.0, 37.0, 41.0, 40.0, 81.0, 74.0, 116.0, 105.0, 140.0, 141.0, 83.0, 95.0, 38.0, 23.0, 22.0, 153.0, 122.0, 16218.0, 69.0, 32.0, 43.0, 63.0, 42.0, 23.0, 3.0, 11.0, 10.0, 7.0, 4.0, 4.0, 0.0, 1.0, 0.0, 1.0, 2.0, 2.0, 3.0, 3.0, 3.0, 1.0, 3.0, 1.0, 0.0, 1.0], "bins": [-15.533514022827148, -15.117754936218262, -14.701996803283691, -14.286237716674805, -13.870478630065918, -13.454719543457031, -13.038961410522461, -12.623202323913574, -12.207443237304688, -11.791685104370117, -11.37592601776123, -10.960166931152344, -10.544408798217773, -10.12864875793457, -9.712890625, -9.297131538391113, -8.881372451782227, -8.465614318847656, -8.04985523223877, -7.634096622467041, -7.2183380126953125, -6.802578926086426, -6.386819839477539, -5.971060752868652, -5.555302619934082, -5.139543533325195, -4.723784446716309, -4.308026313781738, -3.8922672271728516, -3.476508140563965, -3.060749053955078, -2.644990921020508, -2.229231834411621, -1.8134727478027344, -1.397714614868164, -0.9819555282592773, -0.5661964416503906, -0.1504373550415039, 0.2653207778930664, 0.6810798645019531, 1.0968389511108398, 1.5125970840454102, 1.9283561706542969, 2.3441152572631836, 2.7598743438720703, 3.175632953643799, 3.5913915634155273, 4.007150650024414, 4.422909259796143, 4.838667869567871, 5.254426956176758, 5.670185565948486, 6.085944652557373, 6.501703262329102, 6.917462348937988, 7.333220958709717, 7.748979568481445, 8.164738655090332, 8.580497741699219, 8.996255874633789, 9.412014961242676, 9.827774047851562, 10.24353313446045, 10.65929126739502, 11.075050354003906]}, "Linear loss (training)": 1202.212646484375, "_runtime": 193.4136791229248, "_step": 89, "Linear loss (validation)": 18.627006369264297, "Regret (validation)": 0.07437379118355948, "_wandb": {"runtime": 192}}