{"gradients/graph_14linear.3.bias": {"_type": "histogram", "values": [2.0, 2.0, 3.0, 0.0, 3.0, 6.0, 2.0, 5.0, 2.0, 4.0, 1.0, 1.0, 3.0, 2.0, 1.0, 41.0, 9.0, 1.0, 6.0, 0.0, 1.0, 1.0, 0.0, 0.0, 0.0, 0.0, 0.0, 0.0, 0.0, 0.0, 0.0, 0.0, 0.0, 0.0, 0.0, 0.0, 0.0, 0.0, 0.0, 0.0, 0.0, 0.0, 0.0, 0.0, 0.0, 0.0, 0.0, 0.0, 0.0, 0.0, 0.0, 0.0, 0.0, 3.0, 4.0, 3.0, 5.0, 4.0, 0.0, 1.0, 0.0, 2.0, 0.0, 2.0], "bins": [-0.5559395551681519, -0.5387281179428101, -0.521516740322113, -0.5043053030967712, -0.48709389567375183, -0.4698824882507324, -0.452671080827713, -0.4354596734046936, -0.4182482361793518, -0.4010368585586548, -0.383825421333313, -0.3666140139102936, -0.34940260648727417, -0.3321911692619324, -0.31497979164123535, -0.29776835441589355, -0.28055694699287415, -0.26334553956985474, -0.24613413214683533, -0.22892269492149353, -0.21171128749847412, -0.1944998800754547, -0.1772884726524353, -0.1600770652294159, -0.14286565780639648, -0.1256542205810547, -0.10844281315803528, -0.09123140573501587, -0.07401999831199646, -0.05680859088897705, -0.039597153663635254, -0.022385776042938232, -0.0051743388175964355, 0.012037098407745361, 0.029248476028442383, 0.04645991325378418, 0.06367132067680359, 0.080882728099823, 0.09809413552284241, 0.11530554294586182, 0.1325169801712036, 0.14972838759422302, 0.16693979501724243, 0.18415120244026184, 0.20136260986328125, 0.21857401728630066, 0.23578545451164246, 0.25299686193466187, 0.2702082693576813, 0.2874196767807007, 0.3046311140060425, 0.3218424916267395, 0.3390539288520813, 0.3562653362751007, 0.3734767436981201, 0.3906881809234619, 0.40789955854415894, 0.42511099576950073, 0.44232240319252014, 0.45953381061553955, 0.47674521803855896, 0.49395662546157837, 0.5111680626869202, 0.5283794403076172, 0.545590877532959]}, "_timestamp": 1715867842.2165332, "gradients/graph_14linear.3.weight": {"_type": "histogram", "values": [2.0, 2.0, 3.0, 4.0, 8.0, 12.0, 7.0, 15.0, 15.0, 20.0, 17.0, 15.0, 16.0, 14.0, 13.0, 50.0, 27.0, 92.0, 74.0, 69.0, 35.0, 18.0, 14.0, 35.0, 63.0, 22.0, 8.0, 2.0, 3.0, 26.0, 101.0, 253.0, 6380.0, 46.0, 25.0, 6.0, 0.0, 0.0, 0.0, 0.0, 0.0, 3.0, 9.0, 17.0, 10.0, 3.0, 4.0, 1.0, 4.0, 6.0, 10.0, 18.0, 16.0, 16.0, 16.0, 5.0, 11.0, 5.0, 5.0, 2.0, 2.0, 3.0, 0.0, 2.0], "bins": [-11.57555866241455, -11.217188835144043, -10.858819961547852, -10.500450134277344, -10.142081260681152, -9.783711433410645, -9.425342559814453, -9.066972732543945, -8.708602905273438, -8.350234031677246, -7.9918646812438965, -7.633495330810547, -7.275125503540039, -6.9167561531066895, -6.55838680267334, -6.20001745223999, -5.841648101806641, -5.483278751373291, -5.124909400939941, -4.766540050506592, -4.408170700073242, -4.049800872802734, -3.6914315223693848, -3.333062171936035, -2.9746923446655273, -2.616323471069336, -2.257953643798828, -1.8995847702026367, -1.541214942932129, -1.1828460693359375, -0.8244762420654297, -0.4661073684692383, -0.10773849487304688, 0.25063133239746094, 0.6090002059936523, 0.9673700332641602, 1.3257389068603516, 1.6841087341308594, 2.042477607727051, 2.4008474349975586, 2.75921630859375, 3.117586135864258, 3.4759554862976074, 3.834324836730957, 4.192694664001465, 4.5510640144348145, 4.909433364868164, 5.267802715301514, 5.626172065734863, 5.984541416168213, 6.3429107666015625, 6.701280117034912, 7.059649467468262, 7.4180192947387695, 7.776388645172119, 8.134757995605469, 8.493127822875977, 8.851496696472168, 9.20986557006836, 9.568235397338867, 9.926605224609375, 10.284974098205566, 10.643343925476074, 11.001712799072266, 11.360082626342773]}, "gradients/graph_14linear.0.bias": {"_type": "histogram", "values": [1.0, 0.0, 0.0, 0.0, 0.0, 0.0, 0.0, 2.0, 0.0, 0.0, 0.0, 0.0, 1.0, 0.0, 1.0, 2.0, 1.0, 0.0, 0.0, 2.0, 0.0, 1.0, 0.0, 0.0, 0.0, 0.0, 0.0, 0.0, 0.0, 0.0, 0.0, 0.0, 0.0, 0.0, 0.0, 0.0, 0.0, 0.0, 0.0, 0.0, 0.0, 0.0, 0.0, 0.0, 0.0, 0.0, 0.0, 0.0, 0.0, 0.0, 0.0, 0.0, 0.0, 0.0, 0.0, 0.0, 0.0, 0.0, 0.0, 0.0, 0.0, 0.0, 0.0, 53.0], "bins": [-33.82423782348633, -33.29573440551758, -32.76723098754883, -32.23872756958008, -31.710222244262695, -31.181718826293945, -30.653215408325195, -30.124711990356445, -29.596208572387695, -29.067703247070312, -28.539199829101562, -28.010696411132812, -27.482192993164062, -26.953689575195312, -26.425186157226562, -25.896682739257812, -25.368179321289062, -24.839675903320312, -24.31117057800293, -23.78266716003418, -23.25416374206543, -22.725658416748047, -22.197154998779297, -21.668651580810547, -21.140148162841797, -20.611644744873047, -20.083141326904297, -19.554637908935547, -19.026134490966797, -18.497631072998047, -17.969127655029297, -17.440622329711914, -16.912118911743164, -16.383615493774414, -15.855111122131348, -15.326607704162598, -14.798104286193848, -14.269599914550781, -13.741096496582031, -13.212593078613281, -12.684089660644531, -12.155585289001465, -11.627081871032715, -11.098578453063965, -10.570074081420898, -10.041570663452148, -9.513067245483398, -8.984562873840332, -8.456059455871582, -7.927555561065674, -7.399052143096924, -6.870548248291016, -6.342044830322266, -5.813540935516357, -5.285037040710449, -4.756533622741699, -4.228029727935791, -3.699526071548462, -3.171022415161133, -2.6425185203552246, -2.1140148639678955, -1.5855112075805664, -1.0570074319839478, -0.5285037159919739, 0.0]}, "gradients/graph_14linear.0.weight": {"_type": "histogram", "values": [2.0, 0.0, 3.0, 4.0, 0.0, 8.0, 9.0, 8.0, 16.0, 9.0, 12.0, 9.0, 19.0, 17.0, 25.0, 26.0, 19.0, 17.0, 6.0, 1.0, 7.0, 6.0, 20.0, 17.0, 4.0, 7654.0, 33.0, 29.0, 32.0, 66.0, 64.0, 65.0, 57.0, 40.0, 28.0, 40.0, 33.0, 30.0, 28.0, 43.0, 30.0, 40.0, 34.0, 42.0, 45.0, 51.0, 47.0, 50.0, 42.0, 41.0, 58.0, 38.0, 42.0, 45.0, 31.0, 10.0, 11.0, 24.0, 6.0, 6.0, 2.0, 11.0, 2.0, 2.0], "bins": [-31.44928741455078, -30.239158630371094, -29.02903175354004, -27.81890296936035, -26.608776092529297, -25.39864730834961, -24.188518524169922, -22.978389739990234, -21.76826286315918, -20.558135986328125, -19.348007202148438, -18.13787841796875, -16.927749633789062, -15.717622756958008, -14.50749397277832, -13.297367095947266, -12.087238311767578, -10.87710952758789, -9.666982650756836, -8.456853866577148, -7.246726989746094, -6.036598205566406, -4.826469421386719, -3.616342544555664, -2.4062137603759766, -1.196084976196289, 0.014041900634765625, 1.2241706848144531, 2.4342994689941406, 3.644428253173828, 4.85455322265625, 6.0646820068359375, 7.274810791015625, 8.484939575195312, 9.695068359375, 10.905193328857422, 12.11532211303711, 13.325450897216797, 14.535579681396484, 15.745706558227539, 16.955835342407227, 18.165964126586914, 19.37609100341797, 20.586219787597656, 21.796348571777344, 23.0064754486084, 24.216604232788086, 25.42673110961914, 26.636859893798828, 27.846988677978516, 29.05711555480957, 30.267244338989258, 31.477371215820312, 32.6875, 33.89762878417969, 35.107757568359375, 36.31788635253906, 37.528011322021484, 38.73814010620117, 39.94826889038086, 41.15839767456055, 42.368526458740234, 43.578651428222656, 44.788780212402344, 45.99890899658203]}, "Linear loss (training)": 17.523430561574674, "_runtime": 133.0343792438507, "_step": 47, "Linear loss (validation)": 21.401470528374308, "Regret (validation)": 0.12247444048324334, "_wandb": {"runtime": 132}}