{"Linear loss": 9822.541015625, "_timestamp": 1715769000.7290854, "_runtime": 292.22429847717285, "_step": 5429, "gradients/graph_12linear.5.bias": {"_type": "histogram", "values": [7.0, 0.0, 0.0, 3.0, 0.0, 0.0, 0.0, 0.0, 0.0, 0.0, 0.0, 0.0, 0.0, 0.0, 0.0, 0.0, 0.0, 0.0, 0.0, 0.0, 0.0, 0.0, 0.0, 0.0, 0.0, 0.0, 0.0, 0.0, 12.0, 0.0, 0.0, 2.0, 45.0, 0.0, 0.0, 17.0, 0.0, 0.0, 0.0, 0.0, 0.0, 0.0, 0.0, 0.0, 0.0, 0.0, 0.0, 0.0, 0.0, 0.0, 0.0, 0.0, 0.0, 0.0, 0.0, 0.0, 0.0, 1.0, 0.0, 0.0, 2.0, 0.0, 0.0, 7.0], "bins": [-200.0, -193.75, -187.5, -181.25, -175.0, -168.75, -162.5, -156.25, -150.0, -143.75, -137.5, -131.25, -125.0, -118.75, -112.5, -106.25, -100.0, -93.75, -87.5, -81.25, -75.0, -68.75, -62.5, -56.25, -50.0, -43.75, -37.5, -31.25, -25.0, -18.75, -12.5, -6.25, 0.0, 6.25, 12.5, 18.75, 25.0, 31.25, 37.5, 43.75, 50.0, 56.25, 62.5, 68.75, 75.0, 81.25, 87.5, 93.75, 100.0, 106.25, 112.5, 118.75, 125.0, 131.25, 137.5, 143.75, 150.0, 156.25, 162.5, 168.75, 175.0, 181.25, 187.5, 193.75, 200.0]}, "gradients/graph_12linear.5.weight": {"_type": "histogram", "values": [21.0, 0.0, 0.0, 9.0, 0.0, 0.0, 0.0, 7.0, 0.0, 3.0, 0.0, 0.0, 0.0, 7.0, 3.0, 0.0, 0.0, 7.0, 0.0, 3.0, 7.0, 3.0, 14.0, 6.0, 0.0, 10.0, 7.0, 3.0, 36.0, 22.0, 46.0, 98.0, 2511.0, 62.0, 26.0, 51.0, 3.0, 8.0, 9.0, 2.0, 4.0, 15.0, 2.0, 8.0, 2.0, 0.0, 7.0, 1.0, 0.0, 2.0, 7.0, 1.0, 0.0, 0.0, 2.0, 0.0, 7.0, 3.0, 0.0, 0.0, 6.0, 0.0, 0.0, 21.0], "bins": [-163.4549102783203, -158.34693908691406, -153.23898315429688, -148.13101196289062, -143.02304077148438, -137.9150848388672, -132.80711364746094, -127.69915008544922, -122.5911865234375, -117.48321533203125, -112.37525177001953, -107.26728820800781, -102.15931701660156, -97.05135345458984, -91.94338989257812, -86.83541870117188, -81.72745513916016, -76.61949157714844, -71.51152038574219, -66.40355682373047, -61.29559326171875, -56.1876220703125, -51.07965850830078, -45.97169494628906, -40.86372375488281, -35.755760192871094, -30.647796630859375, -25.539825439453125, -20.431869506835938, -15.323898315429688, -10.215927124023438, -5.10797119140625, 0.0, 5.10797119140625, 10.215927124023438, 15.323898315429688, 20.431869506835938, 25.539825439453125, 30.647796630859375, 35.755760192871094, 40.86372375488281, 45.97169494628906, 51.07965850830078, 56.1876220703125, 61.29559326171875, 66.40355682373047, 71.51152038574219, 76.61949157714844, 81.72745513916016, 86.83541870117188, 91.94338989257812, 97.05135345458984, 102.15931701660156, 107.26728820800781, 112.37525177001953, 117.48321533203125, 122.5911865234375, 127.69915008544922, 132.80711364746094, 137.9150848388672, 143.02304077148438, 148.13101196289062, 153.23898315429688, 158.34693908691406, 163.4549102783203]}, "gradients/graph_12linear.3.bias": {"_type": "histogram", "values": [1.0, 0.0, 0.0, 0.0, 0.0, 0.0, 0.0, 0.0, 0.0, 0.0, 0.0, 1.0, 0.0, 0.0, 0.0, 0.0, 0.0, 1.0, 0.0, 0.0, 0.0, 1.0, 1.0, 0.0, 0.0, 0.0, 0.0, 0.0, 0.0, 1.0, 0.0, 0.0, 0.0, 0.0, 0.0, 1.0, 0.0, 1.0, 1.0, 1.0, 1.0, 0.0, 0.0, 0.0, 19.0, 0.0, 0.0, 0.0, 0.0, 0.0, 0.0, 0.0, 0.0, 0.0, 0.0, 0.0, 0.0, 0.0, 0.0, 0.0, 1.0, 0.0, 0.0, 1.0], "bins": [-934.612060546875, -913.7447509765625, -892.8773803710938, -872.0100708007812, -851.1427612304688, -830.2754516601562, -809.4080810546875, -788.540771484375, -767.6734619140625, -746.80615234375, -725.9387817382812, -705.0714721679688, -684.2041015625, -663.3367919921875, -642.469482421875, -621.6021728515625, -600.73486328125, -579.8674926757812, -559.0001831054688, -538.1328125, -517.2655029296875, -496.398193359375, -475.5308837890625, -454.6635437011719, -433.79620361328125, -412.92889404296875, -392.06158447265625, -371.1942138671875, -350.326904296875, -329.4595947265625, -308.59228515625, -287.72491455078125, -266.85760498046875, -245.99029541015625, -225.1229248046875, -204.255615234375, -183.3883056640625, -162.52099609375, -141.65362548828125, -120.78631591796875, -99.91900634765625, -79.05166625976562, -58.184326171875, -37.3170166015625, -16.449676513671875, 4.417633056640625, 25.28497314453125, 46.15228271484375, 67.01962280273438, 87.886962890625, 108.7542724609375, 129.62161254882812, 150.48892211914062, 171.35626220703125, 192.2235870361328, 213.09091186523438, 233.95823669433594, 254.8255615234375, 275.69287109375, 296.5602111816406, 317.42755126953125, 338.29486083984375, 359.1622009277344, 380.0295104980469, 400.8968505859375]}, "gradients/graph_12linear.3.weight": {"_type": "histogram", "values": [1024.0], "bins": [-0.0, -0.0]}, "gradients/graph_12linear.0.bias": {"_type": "histogram", "values": [32.0], "bins": [0.0, 0.0]}, "gradients/graph_12linear.0.weight": {"_type": "histogram", "values": [4608.0], "bins": [0.0, 0.0]}, "Regret": 0.07805390417828868, "_wandb": {"runtime": 291}}