{"Linear loss": 15800.2783203125, "_timestamp": 1715774964.8299067, "_runtime": 56.68920278549194, "_step": 1809, "gradients/graph_32linear.5.bias": {"_type": "histogram", "values": [7.0, 0.0, 0.0, 3.0, 0.0, 0.0, 0.0, 0.0, 0.0, 0.0, 0.0, 0.0, 0.0, 0.0, 0.0, 0.0, 0.0, 0.0, 0.0, 0.0, 0.0, 0.0, 0.0, 0.0, 0.0, 0.0, 0.0, 0.0, 13.0, 0.0, 0.0, 2.0, 39.0, 0.0, 0.0, 16.0, 0.0, 0.0, 0.0, 0.0, 0.0, 0.0, 0.0, 0.0, 0.0, 0.0, 0.0, 0.0, 0.0, 0.0, 0.0, 0.0, 0.0, 0.0, 0.0, 0.0, 0.0, 1.0, 0.0, 0.0, 4.0, 0.0, 0.0, 11.0], "bins": [-200.0, -193.75, -187.5, -181.25, -175.0, -168.75, -162.5, -156.25, -150.0, -143.75, -137.5, -131.25, -125.0, -118.75, -112.5, -106.25, -100.0, -93.75, -87.5, -81.25, -75.0, -68.75, -62.5, -56.25, -50.0, -43.75, -37.5, -31.25, -25.0, -18.75, -12.5, -6.25, 0.0, 6.25, 12.5, 18.75, 25.0, 31.25, 37.5, 43.75, 50.0, 56.25, 62.5, 68.75, 75.0, 81.25, 87.5, 93.75, 100.0, 106.25, 112.5, 118.75, 125.0, 131.25, 137.5, 143.75, 150.0, 156.25, 162.5, 168.75, 175.0, 181.25, 187.5, 193.75, 200.0]}, "gradients/graph_32linear.5.weight": {"_type": "histogram", "values": [7.0, 7.0, 7.0, 17.0, 24.0, 24.0, 30.0, 19.0, 20.0, 9.0, 10.0, 17.0, 24.0, 20.0, 30.0, 37.0, 37.0, 15.0, 34.0, 9.0, 24.0, 16.0, 17.0, 13.0, 10.0, 13.0, 7.0, 3.0, 36.0, 251.0, 335.0, 303.0, 3135.0, 421.0, 316.0, 47.0, 5.0, 13.0, 19.0, 18.0, 20.0, 29.0, 26.0, 38.0, 16.0, 56.0, 25.0, 59.0, 58.0, 46.0, 31.0, 39.0, 30.0, 19.0, 15.0, 31.0, 28.0, 46.0, 37.0, 37.0, 26.0, 11.0, 11.0, 11.0], "bins": [-109.98966979980469, -106.552490234375, -103.11531829833984, -99.67813873291016, -96.24095916748047, -92.80378723144531, -89.36660766601562, -85.92942810058594, -82.49224853515625, -79.0550765991211, -75.6178970336914, -72.18072509765625, -68.74354553222656, -65.30636596679688, -61.86919021606445, -58.432010650634766, -54.994834899902344, -51.55765914916992, -48.120479583740234, -44.68330383300781, -41.246124267578125, -37.80895233154297, -34.37177276611328, -30.934593200683594, -27.497421264648438, -24.06024169921875, -20.623062133789062, -17.185882568359375, -13.748710632324219, -10.311531066894531, -6.874351501464844, -3.4371795654296875, 0.0, 3.4371795654296875, 6.874351501464844, 10.311531066894531, 13.748710632324219, 17.185882568359375, 20.623062133789062, 24.06024169921875, 27.497421264648438, 30.934593200683594, 34.37177276611328, 37.80895233154297, 41.246124267578125, 44.68330383300781, 48.120479583740234, 51.55765914916992, 54.994834899902344, 58.432010650634766, 61.86919021606445, 65.30636596679688, 68.74354553222656, 72.18072509765625, 75.6178970336914, 79.0550765991211, 82.49224853515625, 85.92942810058594, 89.36660766601562, 92.80378723144531, 96.24095916748047, 99.67813873291016, 103.11531829833984, 106.552490234375, 109.98966979980469]}, "gradients/graph_32linear.3.bias": {"_type": "histogram", "values": [2.0, 2.0, 0.0, 1.0, 0.0, 0.0, 1.0, 2.0, 1.0, 1.0, 0.0, 1.0, 2.0, 1.0, 0.0, 0.0, 2.0, 2.0, 1.0, 3.0, 0.0, 2.0, 3.0, 1.0, 2.0, 1.0, 1.0, 1.0, 0.0, 0.0, 2.0, 0.0, 1.0, 0.0, 1.0, 1.0, 1.0, 1.0, 3.0, 3.0, 1.0, 0.0, 1.0, 2.0, 0.0, 1.0, 1.0, 7.0, 0.0, 1.0, 1.0, 0.0, 2.0, 0.0, 0.0, 0.0, 0.0, 0.0, 0.0, 0.0, 0.0, 0.0, 0.0, 1.0], "bins": [-271.19561767578125, -265.5450439453125, -259.89447021484375, -254.24391174316406, -248.5933380126953, -242.94276428222656, -237.29220581054688, -231.64163208007812, -225.99105834960938, -220.34048461914062, -214.68992614746094, -209.0393524169922, -203.3887939453125, -197.73822021484375, -192.087646484375, -186.43707275390625, -180.7864990234375, -175.1359405517578, -169.48536682128906, -163.83480834960938, -158.18423461914062, -152.53366088867188, -146.88308715820312, -141.23251342773438, -135.5819549560547, -129.93138122558594, -124.28080749511719, -118.6302490234375, -112.97967529296875, -107.3291015625, -101.67852783203125, -96.02796936035156, -90.37739562988281, -84.72682189941406, -79.07626342773438, -73.42568969726562, -67.77511596679688, -62.124542236328125, -56.47398376464844, -50.82341003417969, -45.17283630371094, -39.52227783203125, -33.8717041015625, -28.22113037109375, -22.57056427001953, -16.91999053955078, -11.269424438476562, -5.6188507080078125, 0.03171539306640625, 5.682281494140625, 11.332855224609375, 16.983421325683594, 22.633995056152344, 28.284561157226562, 33.93513107299805, 39.58570098876953, 45.236270904541016, 50.8868408203125, 56.537410736083984, 62.18798065185547, 67.83854675292969, 73.48912048339844, 79.13968658447266, 84.7902603149414, 90.44082641601562]}, "gradients/graph_32linear.3.weight": {"_type": "histogram", "values": [4096.0], "bins": [0.0, 0.0]}, "gradients/graph_32linear.0.bias": {"_type": "histogram", "values": [64.0], "bins": [0.0, 0.0]}, "gradients/graph_32linear.0.weight": {"_type": "histogram", "values": [9216.0], "bins": [0.0, 0.0]}, "Regret": 0.07437459147725743, "_wandb": {"runtime": 55}}