{"gradients/graph_10linear.5.bias": {"_type": "histogram", "values": [1.0, 0.0, 3.0, 9.0, 6.0, 3.0, 5.0, 3.0, 1.0, 2.0, 1.0, 2.0, 1.0, 13.0, 8.0, 4.0, 1.0, 1.0, 0.0, 0.0, 0.0, 0.0, 0.0, 1.0, 2.0, 1.0, 0.0, 0.0, 0.0, 0.0, 0.0, 0.0, 0.0, 0.0, 0.0, 0.0, 0.0, 2.0, 2.0, 2.0, 2.0, 0.0, 0.0, 0.0, 0.0, 0.0, 0.0, 0.0, 0.0, 0.0, 0.0, 0.0, 0.0, 0.0, 0.0, 0.0, 0.0, 0.0, 3.0, 4.0, 6.0, 2.0, 2.0, 3.0], "bins": [-0.9401657581329346, -0.9106913805007935, -0.8812169432640076, -0.8517425656318665, -0.8222681283950806, -0.7927937507629395, -0.7633193731307983, -0.7338449954986572, -0.7043705582618713, -0.6748961210250854, -0.6454217433929443, -0.6159473657608032, -0.5864729881286621, -0.5569985508918762, -0.5275241732597351, -0.4980497658252716, -0.4685753583908081, -0.439100980758667, -0.4096265435218811, -0.38015216588974, -0.3506777286529541, -0.321203351020813, -0.2917289733886719, -0.262254536151886, -0.23278015851974487, -0.20330578088760376, -0.17383134365081787, -0.14435696601867676, -0.11488258838653564, -0.08540815114974976, -0.05593377351760864, -0.026459336280822754, 0.003014981746673584, 0.0324893593788147, 0.061963796615600586, 0.0914381742477417, 0.12091261148452759, 0.1503869891166687, 0.17986136674880981, 0.2093358039855957, 0.23881018161773682, 0.26828455924987793, 0.2977589964866638, 0.32723337411880493, 0.35670775175094604, 0.38618218898773193, 0.41565656661987305, 0.44513100385665894, 0.47460538148880005, 0.5040798187255859, 0.533554196357727, 0.5630285739898682, 0.5925029516220093, 0.6219773888587952, 0.6514517664909363, 0.6809262037277222, 0.7104005813598633, 0.7398749589920044, 0.7693493962287903, 0.7988237738609314, 0.8282982110977173, 0.8577725887298584, 0.8872469663619995, 0.9167214035987854, 0.9461957812309265]}, "_timestamp": 1715848939.2643473, "gradients/graph_10linear.5.weight": {"_type": "histogram", "values": [1.0, 0.0, 3.0, 10.0, 6.0, 5.0, 16.0, 11.0, 20.0, 26.0, 22.0, 21.0, 19.0, 25.0, 41.0, 53.0, 43.0, 51.0, 66.0, 55.0, 93.0, 84.0, 51.0, 94.0, 103.0, 70.0, 78.0, 64.0, 53.0, 30.0, 10.0, 1316.0, 31.0, 24.0, 33.0, 32.0, 39.0, 25.0, 22.0, 13.0, 27.0, 13.0, 16.0, 35.0, 28.0, 24.0, 7.0, 10.0, 22.0, 18.0, 7.0, 9.0, 6.0, 16.0, 13.0, 15.0, 10.0, 11.0, 6.0, 5.0, 8.0, 2.0, 2.0, 3.0], "bins": [-7.23632287979126, -7.009462356567383, -6.782602310180664, -6.555742263793945, -6.328881740570068, -6.102021217346191, -5.875161170959473, -5.648301124572754, -5.421440601348877, -5.194580078125, -4.967720031738281, -4.7408599853515625, -4.5139994621276855, -4.287138938903809, -4.06027889251709, -3.833418607711792, -3.606558322906494, -3.3796980381011963, -3.1528377532958984, -2.9259772300720215, -2.6991171836853027, -2.472257137298584, -2.245396614074707, -2.01853609085083, -1.7916760444641113, -1.5648159980773926, -1.3379554748535156, -1.1110949516296387, -0.8842349052429199, -0.6573748588562012, -0.4305143356323242, -0.20365381240844727, 0.02320575714111328, 0.25006580352783203, 0.476926326751709, 0.7037868499755859, 0.9306468963623047, 1.1575069427490234, 1.3843674659729004, 1.6112279891967773, 1.838088035583496, 2.064948081970215, 2.291808605194092, 2.5186691284179688, 2.7455291748046875, 2.9723892211914062, 3.199249744415283, 3.426110029220581, 3.652970314025879, 3.8798305988311768, 4.106690883636475, 4.333551406860352, 4.56041145324707, 4.787271499633789, 5.014132022857666, 5.240992546081543, 5.467852592468262, 5.6947126388549805, 5.921573162078857, 6.148433685302734, 6.375293731689453, 6.602153778076172, 6.829014301300049, 7.055874824523926, 7.2827348709106445]}, "gradients/graph_10linear.3.bias": {"_type": "histogram", "values": [1.0, 0.0, 1.0, 0.0, 0.0, 1.0, 2.0, 1.0, 2.0, 0.0, 1.0, 0.0, 0.0, 0.0, 3.0, 0.0, 3.0, 1.0, 0.0, 1.0, 0.0, 0.0, 1.0, 1.0, 0.0, 0.0, 0.0, 0.0, 0.0, 0.0, 0.0, 0.0, 0.0, 0.0, 0.0, 0.0, 0.0, 0.0, 0.0, 0.0, 0.0, 0.0, 0.0, 0.0, 0.0, 0.0, 0.0, 0.0, 0.0, 0.0, 0.0, 0.0, 0.0, 0.0, 0.0, 0.0, 0.0, 0.0, 0.0, 0.0, 0.0, 0.0, 0.0, 13.0], "bins": [-9.935575485229492, -9.780332565307617, -9.625088691711426, -9.46984577178955, -9.31460189819336, -9.159358978271484, -9.004115104675293, -8.848872184753418, -8.693628311157227, -8.538385391235352, -8.38314151763916, -8.227898597717285, -8.072654724121094, -7.917411804199219, -7.7621684074401855, -7.606925010681152, -7.451681613922119, -7.296438217163086, -7.141194820404053, -6.9859514236450195, -6.830708026885986, -6.675464630126953, -6.520221710205078, -6.364977836608887, -6.209734916687012, -6.05449104309082, -5.899248123168945, -5.744004726409912, -5.588761329650879, -5.433517932891846, -5.2782745361328125, -5.123031139373779, -4.967787742614746, -4.812544345855713, -4.65730094909668, -4.5020575523376465, -4.346814155578613, -4.19157075881958, -4.036327362060547, -3.8810842037200928, -3.7258408069610596, -3.5705974102020264, -3.415354013442993, -3.26011061668396, -3.104867458343506, -2.9496240615844727, -2.7943806648254395, -2.6391372680664062, -2.483893871307373, -2.32865047454834, -2.1734070777893066, -2.0181636810302734, -1.8629204034805298, -1.7076770067214966, -1.552433729171753, -1.3971903324127197, -1.2419469356536865, -1.0867035388946533, -0.9314602017402649, -0.7762168645858765, -0.6209734678268433, -0.46573010087013245, -0.31048673391342163, -0.15524336695671082, 0.0]}, "gradients/graph_10linear.3.weight": {"_type": "histogram", "values": [1.0, 0.0, 1.0, 0.0, 0.0, 1.0, 2.0, 1.0, 2.0, 0.0, 1.0, 0.0, 0.0, 0.0, 3.0, 0.0, 3.0, 1.0, 0.0, 1.0, 0.0, 0.0, 1.0, 1.0, 0.0, 0.0, 0.0, 0.0, 0.0, 0.0, 0.0, 0.0, 0.0, 0.0, 0.0, 0.0, 0.0, 0.0, 0.0, 0.0, 0.0, 0.0, 0.0, 0.0, 0.0, 0.0, 0.0, 0.0, 0.0, 0.0, 0.0, 0.0, 0.0, 0.0, 0.0, 0.0, 0.0, 0.0, 0.0, 0.0, 0.0, 0.0, 0.0, 1005.0], "bins": [-310.0578918457031, -305.2132263183594, -300.36859130859375, -295.52392578125, -290.67926025390625, -285.8346252441406, -280.9899597167969, -276.14532470703125, -271.3006591796875, -266.45599365234375, -261.6113586425781, -256.7666931152344, -251.92202758789062, -247.07737731933594, -242.23272705078125, -237.38807678222656, -232.54342651367188, -227.69876098632812, -222.85411071777344, -218.00946044921875, -213.164794921875, -208.3201446533203, -203.47549438476562, -198.63082885742188, -193.7861785888672, -188.9415283203125, -184.09686279296875, -179.25221252441406, -174.40756225585938, -169.5629119873047, -164.71826171875, -159.87359619140625, -155.02894592285156, -150.18429565429688, -145.33963012695312, -140.49497985839844, -135.65032958984375, -130.80567932128906, -125.96102142333984, -121.11636352539062, -116.27171325683594, -111.42705535888672, -106.5823974609375, -101.73774719238281, -96.8930892944336, -92.0484390258789, -87.20378112792969, -82.359130859375, -77.51447296142578, -72.66981506347656, -67.82516479492188, -62.98051071166992, -58.13585662841797, -53.29119873046875, -48.4465446472168, -43.601890563964844, -38.75723648071289, -33.91258239746094, -29.067928314208984, -24.2232723236084, -19.378618240356445, -14.533964157104492, -9.689309120178223, -4.844654560089111, 0.0]}, "gradients/graph_10linear.0.bias": {"_type": "histogram", "values": [1.0, 0.0, 0.0, 0.0, 0.0, 0.0, 0.0, 0.0, 0.0, 0.0, 0.0, 0.0, 0.0, 0.0, 0.0, 0.0, 0.0, 0.0, 0.0, 0.0, 0.0, 0.0, 0.0, 0.0, 0.0, 0.0, 0.0, 0.0, 0.0, 0.0, 0.0, 0.0, 0.0, 0.0, 0.0, 0.0, 0.0, 0.0, 0.0, 0.0, 0.0, 0.0, 0.0, 0.0, 0.0, 0.0, 0.0, 0.0, 0.0, 0.0, 0.0, 0.0, 0.0, 0.0, 0.0, 0.0, 0.0, 0.0, 0.0, 0.0, 0.0, 0.0, 0.0, 31.0], "bins": [-179.7360076904297, -176.92762756347656, -174.1192626953125, -171.31088256835938, -168.50250244140625, -165.6941375732422, -162.88575744628906, -160.07737731933594, -157.26901245117188, -154.46063232421875, -151.65225219726562, -148.84388732910156, -146.03550720214844, -143.2271270751953, -140.41876220703125, -137.61038208007812, -134.802001953125, -131.99362182617188, -129.1852569580078, -126.37687683105469, -123.5685043334961, -120.7601318359375, -117.95175170898438, -115.14337921142578, -112.33500671386719, -109.52662658691406, -106.71825408935547, -103.90988159179688, -101.10150146484375, -98.29312896728516, -95.48475646972656, -92.67637634277344, -89.86800384521484, -87.05963134765625, -84.25125122070312, -81.44287872314453, -78.63450622558594, -75.82612609863281, -73.01775360107422, -70.20938110351562, -67.4010009765625, -64.5926284790039, -61.78425216674805, -58.97587585449219, -56.167503356933594, -53.359127044677734, -50.550750732421875, -47.74237823486328, -44.93400192260742, -42.12562561035156, -39.31725311279297, -36.50887680053711, -33.70050048828125, -30.892126083374023, -28.083751678466797, -25.275375366210938, -22.46700096130371, -19.658626556396484, -16.850250244140625, -14.041875839233398, -11.233500480651855, -8.425125122070312, -5.616750240325928, -2.808375120162964, 0.0]}, "gradients/graph_10linear.0.weight": {"_type": "histogram", "values": [9.0, 0.0, 3.0, 1.0, 2.0, 0.0, 2.0, 6.0, 1.0, 5.0, 3.0, 0.0, 1.0, 3.0, 1.0, 4.0, 0.0, 0.0, 3.0, 4.0, 2.0, 0.0, 2.0, 1.0, 4.0, 1.0, 2.0, 2.0, 4.0, 3.0, 5.0, 3.0, 7.0, 4.0, 10.0, 6.0, 4471.0, 5.0, 5.0, 3.0, 6.0, 3.0, 0.0, 2.0, 0.0, 1.0, 3.0, 1.0, 1.0, 1.0, 1.0, 0.0, 0.0, 0.0, 0.0, 0.0, 0.0, 0.0, 0.0, 0.0, 0.0, 0.0, 0.0, 1.0], "bins": [-350.1485290527344, -340.5653076171875, -330.9820861816406, -321.39886474609375, -311.8156433105469, -302.232421875, -292.6492004394531, -283.06597900390625, -273.4827575683594, -263.8995361328125, -254.31631469726562, -244.73309326171875, -235.14987182617188, -225.566650390625, -215.98342895507812, -206.40020751953125, -196.81698608398438, -187.2337646484375, -177.65054321289062, -168.06732177734375, -158.48410034179688, -148.90087890625, -139.31765747070312, -129.73443603515625, -120.15121459960938, -110.5679931640625, -100.98477172851562, -91.40155029296875, -81.81832885742188, -72.235107421875, -62.651885986328125, -53.06866455078125, -43.48541259765625, -33.902191162109375, -24.3189697265625, -14.735748291015625, -5.15252685546875, 4.430694580078125, 14.013916015625, 23.597137451171875, 33.18035888671875, 42.763580322265625, 52.3468017578125, 61.930023193359375, 71.51324462890625, 81.09646606445312, 90.6796875, 100.26290893554688, 109.84613037109375, 119.42935180664062, 129.0125732421875, 138.59579467773438, 148.17901611328125, 157.76223754882812, 167.345458984375, 176.92868041992188, 186.51190185546875, 196.09512329101562, 205.6783447265625, 215.26156616210938, 224.84478759765625, 234.42800903320312, 244.01123046875, 253.59445190429688, 263.17767333984375]}, "Linear loss (training)": 2066.528076171875, "_runtime": 52.59877920150757, "_step": 29, "Linear loss (validation)": 47.21587763195702, "Regret (validation)": 2.595959210116498, "_wandb": {"runtime": 51}}