{"gradients/graph_22linear.5.bias": {"_type": "histogram", "values": [2.0, 4.0, 4.0, 7.0, 5.0, 4.0, 3.0, 1.0, 1.0, 2.0, 1.0, 1.0, 1.0, 1.0, 3.0, 6.0, 11.0, 4.0, 3.0, 0.0, 2.0, 1.0, 1.0, 0.0, 0.0, 0.0, 0.0, 0.0, 0.0, 0.0, 0.0, 0.0, 0.0, 0.0, 0.0, 0.0, 0.0, 0.0, 0.0, 0.0, 0.0, 0.0, 0.0, 0.0, 0.0, 0.0, 0.0, 0.0, 0.0, 0.0, 0.0, 0.0, 0.0, 0.0, 0.0, 3.0, 2.0, 2.0, 4.0, 6.0, 4.0, 4.0, 0.0, 3.0], "bins": [-0.5754715800285339, -0.5573983788490295, -0.5393251776695251, -0.5212519764900208, -0.5031787753105164, -0.48510557413101196, -0.4670323431491852, -0.4489591419696808, -0.4308859407901764, -0.412812739610672, -0.3947395384311676, -0.3766663074493408, -0.3585931062698364, -0.34051990509033203, -0.32244670391082764, -0.30437350273132324, -0.28630030155181885, -0.26822710037231445, -0.25015389919281006, -0.23208069801330566, -0.21400749683380127, -0.1959342658519745, -0.1778610646724701, -0.1597878634929657, -0.1417146623134613, -0.12364146113395691, -0.10556825995445251, -0.08749505877494812, -0.06942182779312134, -0.05134862661361694, -0.03327542543411255, -0.015202224254608154, 0.0028709769248962402, 0.020944178104400635, 0.03901737928390503, 0.057090580463409424, 0.07516378164291382, 0.0932370126247406, 0.111310213804245, 0.1293834149837494, 0.14745661616325378, 0.16552981734275818, 0.18360301852226257, 0.20167621970176697, 0.21974945068359375, 0.23782265186309814, 0.25589585304260254, 0.27396905422210693, 0.29204225540161133, 0.3101154565811157, 0.3281886577606201, 0.3462618589401245, 0.3643350601196289, 0.3824082612991333, 0.4004814922809601, 0.4185546934604645, 0.43662789463996887, 0.45470109581947327, 0.47277429699897766, 0.49084752798080444, 0.5089207291603088, 0.5269939303398132, 0.5450671315193176, 0.563140332698822, 0.5812135338783264]}, "_timestamp": 1715852440.8434277, "gradients/graph_22linear.5.weight": {"_type": "histogram", "values": [5.0, 13.0, 20.0, 37.0, 51.0, 52.0, 65.0, 64.0, 75.0, 88.0, 80.0, 91.0, 107.0, 135.0, 186.0, 216.0, 227.0, 244.0, 277.0, 335.0, 369.0, 432.0, 497.0, 415.0, 463.0, 540.0, 501.0, 460.0, 391.0, 372.0, 305.0, 2123.0, 132.0, 104.0, 53.0, 131.0, 91.0, 112.0, 149.0, 143.0, 120.0, 179.0, 195.0, 175.0, 124.0, 119.0, 117.0, 154.0, 144.0, 121.0, 96.0, 78.0, 66.0, 76.0, 66.0, 64.0, 58.0, 50.0, 49.0, 35.0, 24.0, 13.0, 7.0, 7.0], "bins": [-3.5533900260925293, -3.4417924880981445, -3.330195188522339, -3.218597888946533, -3.1070003509521484, -2.9954028129577637, -2.883805513381958, -2.7722082138061523, -2.6606106758117676, -2.549013137817383, -2.437415838241577, -2.3258185386657715, -2.2142210006713867, -2.102623462677002, -1.9910261631011963, -1.879428744316101, -1.7678313255310059, -1.6562339067459106, -1.5446364879608154, -1.4330391883850098, -1.321441650390625, -1.2098441123962402, -1.0982468128204346, -0.9866495132446289, -0.8750519752502441, -0.7634544372558594, -0.6518571376800537, -0.540259838104248, -0.4286623001098633, -0.3170647621154785, -0.20546746253967285, -0.09387016296386719, 0.01772761344909668, 0.12932515144348145, 0.2409224510192871, 0.3525197505950928, 0.46411728858947754, 0.5757148265838623, 0.687312126159668, 0.7989094257354736, 0.9105069637298584, 1.0221045017242432, 1.1337018013000488, 1.2452991008758545, 1.3568966388702393, 1.468494176864624, 1.5800914764404297, 1.691688895225525, 1.8032863140106201, 1.9148837327957153, 2.0264811515808105, 2.1380786895751953, 2.249675989151001, 2.3612732887268066, 2.4728708267211914, 2.584468364715576, 2.696065664291382, 2.8076629638671875, 2.9192605018615723, 3.030858039855957, 3.1424553394317627, 3.2540526390075684, 3.365650177001953, 3.477247714996338, 3.5888450145721436]}, "gradients/graph_22linear.3.bias": {"_type": "histogram", "values": [1.0, 1.0, 1.0, 0.0, 0.0, 0.0, 0.0, 0.0, 2.0, 1.0, 4.0, 3.0, 8.0, 8.0, 10.0, 8.0, 5.0, 9.0, 9.0, 7.0, 7.0, 5.0, 3.0, 5.0, 5.0, 1.0, 2.0, 1.0, 2.0, 0.0, 1.0, 0.0, 0.0, 0.0, 0.0, 0.0, 0.0, 0.0, 0.0, 0.0, 0.0, 0.0, 0.0, 0.0, 0.0, 0.0, 0.0, 0.0, 0.0, 0.0, 0.0, 0.0, 0.0, 0.0, 0.0, 0.0, 0.0, 0.0, 0.0, 0.0, 0.0, 0.0, 0.0, 19.0], "bins": [-3.1069676876068115, -3.0584213733673096, -3.0098750591278076, -2.9613285064697266, -2.9127821922302246, -2.8642358779907227, -2.8156895637512207, -2.7671430110931396, -2.7185966968536377, -2.6700503826141357, -2.621504068374634, -2.5729575157165527, -2.524411201477051, -2.475864887237549, -2.427318572998047, -2.378772258758545, -2.330225706100464, -2.281679391860962, -2.23313307762146, -2.184586524963379, -2.136040210723877, -2.087493896484375, -2.038947582244873, -1.9904011487960815, -1.9418548345565796, -1.893308401107788, -1.8447620868682861, -1.7962156534194946, -1.7476693391799927, -1.6991229057312012, -1.6505765914916992, -1.6020301580429077, -1.5534838438034058, -1.5049375295639038, -1.4563910961151123, -1.4078447818756104, -1.3592983484268188, -1.310752034187317, -1.2622056007385254, -1.2136592864990234, -1.165112853050232, -1.11656653881073, -1.0680201053619385, -1.0194737911224365, -0.9709274172782898, -0.9223810434341431, -0.8738346695899963, -0.8252882957458496, -0.7767419219017029, -0.7281955480575562, -0.6796491742134094, -0.6311028003692627, -0.582556426525116, -0.5340100526809692, -0.4854637086391449, -0.43691733479499817, -0.38837096095085144, -0.3398245871067047, -0.291278213262558, -0.24273185431957245, -0.19418548047542572, -0.145639106631279, -0.09709274023771286, -0.04854637011885643, 0.0]}, "gradients/graph_22linear.3.weight": {"_type": "histogram", "values": [1.0, 1.0, 1.0, 0.0, 0.0, 0.0, 0.0, 0.0, 2.0, 1.0, 4.0, 3.0, 8.0, 8.0, 10.0, 8.0, 5.0, 10.0, 9.0, 9.0, 7.0, 5.0, 3.0, 5.0, 8.0, 5.0, 9.0, 13.0, 14.0, 13.0, 11.0, 11.0, 11.0, 10.0, 16.0, 19.0, 18.0, 18.0, 21.0, 25.0, 26.0, 24.0, 21.0, 18.0, 12.0, 7.0, 3.0, 2.0, 1.0, 0.0, 1.0, 2.0, 6.0, 34.0, 36.0, 23.0, 6.0, 1.0, 0.0, 0.0, 0.0, 0.0, 0.0, 15839.0], "bins": [-81.53520202636719, -80.26121520996094, -78.98722839355469, -77.71324157714844, -76.43925476074219, -75.16526794433594, -73.89127349853516, -72.6172866821289, -71.34329986572266, -70.0693130493164, -68.79532623291016, -67.5213394165039, -66.24735260009766, -64.9733657836914, -63.699378967285156, -62.42538833618164, -61.15140151977539, -59.87741470336914, -58.603424072265625, -57.329437255859375, -56.055450439453125, -54.781463623046875, -53.507476806640625, -52.233489990234375, -50.959503173828125, -49.685516357421875, -48.41152572631836, -47.13753890991211, -45.86355209350586, -44.58956527709961, -43.315574645996094, -42.041587829589844, -40.767601013183594, -39.493614196777344, -38.219627380371094, -36.94563674926758, -35.67164993286133, -34.39766311645508, -33.12367630004883, -31.849687576293945, -30.575700759887695, -29.301713943481445, -28.027725219726562, -26.753738403320312, -25.479751586914062, -24.20576286315918, -22.93177604675293, -21.657787322998047, -20.383800506591797, -19.109813690185547, -17.835824966430664, -16.561838150024414, -15.287850379943848, -14.013862609863281, -12.739875793457031, -11.465888023376465, -10.191900253295898, -8.917912483215332, -7.643925189971924, -6.369937896728516, -5.095950126647949, -3.821962594985962, -2.5479750633239746, -1.2739875316619873, -0.0]}, "gradients/graph_22linear.0.bias": {"_type": "histogram", "values": [1.0, 0.0, 0.0, 0.0, 0.0, 0.0, 0.0, 0.0, 0.0, 0.0, 0.0, 0.0, 0.0, 0.0, 1.0, 0.0, 0.0, 0.0, 0.0, 1.0, 0.0, 1.0, 0.0, 1.0, 0.0, 0.0, 0.0, 0.0, 0.0, 0.0, 0.0, 0.0, 0.0, 0.0, 0.0, 0.0, 0.0, 0.0, 0.0, 0.0, 0.0, 0.0, 0.0, 0.0, 0.0, 0.0, 0.0, 0.0, 0.0, 0.0, 0.0, 0.0, 0.0, 0.0, 0.0, 0.0, 0.0, 0.0, 0.0, 0.0, 0.0, 0.0, 0.0, 123.0], "bins": [-112.05923461914062, -110.30831146240234, -108.55738067626953, -106.80645751953125, -105.05553436279297, -103.30461120605469, -101.55368041992188, -99.8027572631836, -98.05183410644531, -96.3009033203125, -94.54998016357422, -92.79905700683594, -91.04812622070312, -89.29720306396484, -87.54627990722656, -85.79534912109375, -84.04442596435547, -82.29350280761719, -80.54257202148438, -78.7916488647461, -77.04072570800781, -75.289794921875, -73.53887176513672, -71.78794860839844, -70.03701782226562, -68.28609466552734, -66.53517150878906, -64.78424072265625, -63.03331756591797, -61.28239440917969, -59.53146743774414, -57.78054428100586, -56.02961730957031, -54.278690338134766, -52.527767181396484, -50.77684020996094, -49.025917053222656, -47.27499008178711, -45.52406311035156, -43.77313995361328, -42.022212982177734, -40.27128601074219, -38.520362854003906, -36.76943588256836, -35.01850891113281, -33.26758575439453, -31.516658782958984, -29.76573371887207, -28.014808654785156, -26.263883590698242, -24.512958526611328, -22.76203155517578, -21.011106491088867, -19.260181427001953, -17.509254455566406, -15.758329391479492, -14.007404327392578, -12.256479263305664, -10.505553245544434, -8.754627227783203, -7.003702163696289, -5.252776622772217, -3.5018510818481445, -1.7509255409240723, 0.0]}, "gradients/graph_22linear.0.weight": {"_type": "histogram", "values": [9.0, 0.0, 3.0, 1.0, 2.0, 0.0, 2.0, 6.0, 10.0, 6.0, 12.0, 5.0, 12.0, 18.0, 13.0, 16.0, 13.0, 15.0, 18.0, 22.0, 10.0, 8.0, 16.0, 10.0, 14.0, 16.0, 9.0, 13.0, 16.0, 15.0, 19.0, 24.0, 31.0, 33.0, 44.0, 43.0, 17772.0, 29.0, 27.0, 30.0, 16.0, 7.0, 6.0, 11.0, 8.0, 7.0, 5.0, 2.0, 1.0, 1.0, 1.0, 0.0, 0.0, 1.0, 1.0, 1.0, 0.0, 1.0, 0.0, 0.0, 0.0, 0.0, 0.0, 1.0], "bins": [-218.30560302734375, -212.33079528808594, -206.35598754882812, -200.38116455078125, -194.40635681152344, -188.43154907226562, -182.4567413330078, -176.48193359375, -170.5071258544922, -164.53231811523438, -158.5574951171875, -152.58270263671875, -146.60787963867188, -140.63307189941406, -134.65826416015625, -128.68344116210938, -122.7086410522461, -116.73383331298828, -110.75901794433594, -104.78421020507812, -98.80940246582031, -92.83458709716797, -86.85978698730469, -80.88496398925781, -74.91015625, -68.93534851074219, -62.960540771484375, -56.98573303222656, -51.01092529296875, -45.036102294921875, -39.06129455566406, -33.08648681640625, -27.111679077148438, -21.136871337890625, -15.162063598632812, -9.187255859375, -3.212432861328125, 2.7623748779296875, 8.7371826171875, 14.711990356445312, 20.686798095703125, 26.661605834960938, 32.63642883300781, 38.611228942871094, 44.58604431152344, 50.56085205078125, 56.53565979003906, 62.510475158691406, 68.48528289794922, 74.46009063720703, 80.43490600585938, 86.40971374511719, 92.384521484375, 98.35933685302734, 104.33414459228516, 110.30895233154297, 116.28376770019531, 122.25857543945312, 128.23338317871094, 134.20819091796875, 140.18299865722656, 146.15780639648438, 152.13262939453125, 158.10743713378906, 164.08224487304688]}, "Linear loss (training)": 101.65241241455078, "_runtime": 170.23728370666504, "_step": 29, "Linear loss (validation)": 30.22358015197082, "Regret (validation)": 0.13932122894990193, "_wandb": {"runtime": 168}}