{"gradients/graph_29linear.5.bias": {"_type": "histogram", "values": [4.0, 2.0, 7.0, 0.0, 1.0, 0.0, 2.0, 13.0, 12.0, 5.0, 2.0, 0.0, 7.0, 14.0, 3.0, 0.0, 0.0, 0.0, 0.0, 0.0, 0.0, 0.0, 0.0, 0.0, 0.0, 0.0, 0.0, 0.0, 0.0, 0.0, 0.0, 0.0, 0.0, 0.0, 0.0, 3.0, 7.0, 5.0, 0.0, 1.0, 0.0, 3.0, 2.0, 0.0, 0.0, 0.0, 0.0, 0.0, 0.0, 1.0, 0.0, 1.0, 0.0, 0.0, 0.0, 0.0, 0.0, 0.0, 0.0, 0.0, 0.0, 0.0, 0.0, 1.0], "bins": [-1.3934153318405151, -1.330683708190918, -1.2679519653320312, -1.205220341682434, -1.142488718032837, -1.0797569751739502, -1.017025351524353, -0.9542937278747559, -0.8915620446205139, -0.828830361366272, -0.7660987377166748, -0.7033670544624329, -0.6406353712081909, -0.5779037475585938, -0.5151720643043518, -0.45244044065475464, -0.3897087574005127, -0.3269771337509155, -0.2642453908920288, -0.20151376724243164, -0.13878214359283447, -0.07605040073394775, -0.013318777084350586, 0.04941284656524658, 0.1121445894241333, 0.17487621307373047, 0.23760783672332764, 0.3003394603729248, 0.3630712032318115, 0.4258028268814087, 0.48853445053100586, 0.5512661933898926, 0.6139976978302002, 0.6767293214797974, 0.7394610643386841, 0.8021926879882812, 0.8649243116378784, 0.9276560544967651, 0.9903876781463623, 1.0531193017959595, 1.1158509254455566, 1.1785826683044434, 1.2413142919540405, 1.3040459156036377, 1.3667776584625244, 1.4295092821121216, 1.4922409057617188, 1.5549726486206055, 1.6177042722702026, 1.6804358959197998, 1.7431676387786865, 1.8058992624282837, 1.8686308860778809, 1.9313626289367676, 1.9940942525863647, 2.056825876235962, 2.1195576190948486, 2.1822891235351562, 2.245020866394043, 2.3077526092529297, 2.3704841136932373, 2.433215856552124, 2.4959475994110107, 2.5586791038513184, 2.621410846710205]}, "_timestamp": 1715781618.0949779, "gradients/graph_29linear.5.weight": {"_type": "histogram", "values": [4.0, 2.0, 7.0, 0.0, 3.0, 4.0, 11.0, 17.0, 20.0, 8.0, 21.0, 35.0, 47.0, 56.0, 65.0, 135.0, 117.0, 147.0, 164.0, 168.0, 212.0, 171.0, 1224.0, 33.0, 44.0, 45.0, 27.0, 49.0, 62.0, 37.0, 20.0, 20.0, 20.0, 11.0, 10.0, 9.0, 14.0, 10.0, 3.0, 1.0, 1.0, 7.0, 3.0, 0.0, 2.0, 1.0, 0.0, 0.0, 0.0, 1.0, 0.0, 2.0, 0.0, 0.0, 0.0, 1.0, 0.0, 0.0, 0.0, 0.0, 0.0, 0.0, 0.0, 1.0], "bins": [-10.653748512268066, -10.174116134643555, -9.694483757019043, -9.214851379394531, -8.735218048095703, -8.255585670471191, -7.77595329284668, -7.296320915222168, -6.816688060760498, -6.337055683135986, -5.857422828674316, -5.377790451049805, -4.898158073425293, -4.418525218963623, -3.9388928413391113, -3.4592599868774414, -2.9796276092529297, -2.499995231628418, -2.0203628540039062, -1.5407295227050781, -1.0610971450805664, -0.5814647674560547, -0.10183238983154297, 0.37779998779296875, 0.8574323654174805, 1.3370656967163086, 1.8166980743408203, 2.296330451965332, 2.7759628295898438, 3.2555952072143555, 3.7352285385131836, 4.214860916137695, 4.694492340087891, 5.174124717712402, 5.653757095336914, 6.133390426635742, 6.613022804260254, 7.092655181884766, 7.572287559509277, 8.051919937133789, 8.531553268432617, 9.011185646057129, 9.49081802368164, 9.970450401306152, 10.450082778930664, 10.929715156555176, 11.409348487854004, 11.888980865478516, 12.368613243103027, 12.848245620727539, 13.327878952026367, 13.807510375976562, 14.28714370727539, 14.766776084899902, 15.246408462524414, 15.726041793823242, 16.205673217773438, 16.685306549072266, 17.164939880371094, 17.64457130432129, 18.124204635620117, 18.603836059570312, 19.08346939086914, 19.563100814819336, 20.042734146118164]}, "gradients/graph_29linear.3.bias": {"_type": "histogram", "values": [1.0, 1.0, 0.0, 2.0, 1.0, 0.0, 0.0, 0.0, 2.0, 1.0, 0.0, 2.0, 2.0, 0.0, 0.0, 0.0, 2.0, 1.0, 1.0, 2.0, 0.0, 1.0, 1.0, 0.0, 0.0, 0.0, 1.0, 0.0, 0.0, 0.0, 0.0, 0.0, 0.0, 0.0, 0.0, 0.0, 0.0, 0.0, 0.0, 0.0, 0.0, 0.0, 0.0, 0.0, 0.0, 0.0, 0.0, 0.0, 0.0, 0.0, 0.0, 0.0, 0.0, 0.0, 0.0, 0.0, 0.0, 0.0, 0.0, 0.0, 0.0, 0.0, 0.0, 11.0], "bins": [-14.714569091796875, -14.48465347290039, -14.254738807678223, -14.024824142456055, -13.79490852355957, -13.564992904663086, -13.335078239440918, -13.10516357421875, -12.875247955322266, -12.645332336425781, -12.415417671203613, -12.185503005981445, -11.955587387084961, -11.725671768188477, -11.495757102966309, -11.26584243774414, -11.035926818847656, -10.806011199951172, -10.576096534729004, -10.346181869506836, -10.116266250610352, -9.886350631713867, -9.6564359664917, -9.426521301269531, -9.196605682373047, -8.966690063476562, -8.736775398254395, -8.506860733032227, -8.276945114135742, -8.047029495239258, -7.81711483001709, -7.587199687957764, -7.3572845458984375, -7.127369403839111, -6.897454261779785, -6.667539119720459, -6.437623977661133, -6.207708835601807, -5.9777936935424805, -5.747878551483154, -5.517963409423828, -5.288048267364502, -5.058133125305176, -4.82821798324585, -4.598302841186523, -4.368387699127197, -4.138472557067871, -3.908557415008545, -3.6786422729492188, -3.4487271308898926, -3.2188119888305664, -2.9888968467712402, -2.758981704711914, -2.529066562652588, -2.2991514205932617, -2.0692362785339355, -1.8393211364746094, -1.6094059944152832, -1.379490852355957, -1.1495757102966309, -0.9196605682373047, -0.6897454261779785, -0.45983028411865234, -0.22991514205932617, 0.0]}, "gradients/graph_29linear.3.weight": {"_type": "histogram", "values": [1.0, 1.0, 0.0, 2.0, 1.0, 0.0, 0.0, 0.0, 2.0, 1.0, 0.0, 2.0, 2.0, 0.0, 0.0, 0.0, 2.0, 1.0, 1.0, 2.0, 0.0, 1.0, 1.0, 0.0, 0.0, 0.0, 2.0, 1.0, 3.0, 0.0, 1.0, 2.0, 1.0, 3.0, 0.0, 2.0, 1.0, 3.0, 0.0, 2.0, 0.0, 1.0, 0.0, 0.0, 0.0, 1.0, 4.0, 1.0, 4.0, 2.0, 4.0, 3.0, 1.0, 1.0, 0.0, 0.0, 0.0, 0.0, 0.0, 0.0, 0.0, 0.0, 0.0, 961.0], "bins": [-313.59185791015625, -308.6919860839844, -303.7921142578125, -298.8922424316406, -293.99237060546875, -289.0924987792969, -284.192626953125, -279.2927551269531, -274.39288330078125, -269.4930114746094, -264.5931396484375, -259.6932678222656, -254.7933807373047, -249.8935089111328, -244.99363708496094, -240.09376525878906, -235.1938934326172, -230.2940216064453, -225.39414978027344, -220.49427795410156, -215.5944061279297, -210.69451904296875, -205.79464721679688, -200.894775390625, -195.99490356445312, -191.09503173828125, -186.19515991210938, -181.2952880859375, -176.39541625976562, -171.49554443359375, -166.59567260742188, -161.69580078125, -156.79592895507812, -151.89605712890625, -146.99618530273438, -142.0963134765625, -137.19644165039062, -132.29656982421875, -127.39669036865234, -122.49681854248047, -117.5969467163086, -112.69707489013672, -107.79720306396484, -102.89733123779297, -97.99745178222656, -93.09757995605469, -88.19770812988281, -83.29783630371094, -78.39796447753906, -73.49809265136719, -68.59822082519531, -63.69834518432617, -58.7984733581543, -53.89860153198242, -48.99872589111328, -44.098854064941406, -39.19898223876953, -34.299110412597656, -29.39923667907715, -24.49936294555664, -19.599491119384766, -14.699618339538574, -9.799745559692383, -4.899872779846191, 0.0]}, "gradients/graph_29linear.0.bias": {"_type": "histogram", "values": [2.0, 0.0, 0.0, 0.0, 0.0, 0.0, 0.0, 0.0, 0.0, 0.0, 0.0, 0.0, 0.0, 0.0, 0.0, 1.0, 0.0, 0.0, 0.0, 0.0, 0.0, 0.0, 0.0, 0.0, 0.0, 0.0, 0.0, 0.0, 0.0, 0.0, 0.0, 0.0, 0.0, 0.0, 0.0, 0.0, 0.0, 0.0, 0.0, 0.0, 0.0, 0.0, 0.0, 0.0, 0.0, 0.0, 0.0, 0.0, 0.0, 0.0, 0.0, 0.0, 0.0, 0.0, 0.0, 0.0, 0.0, 0.0, 0.0, 0.0, 0.0, 0.0, 0.0, 29.0], "bins": [-180.72447204589844, -177.90065002441406, -175.0768280029297, -172.2530059814453, -169.42919921875, -166.60537719726562, -163.78155517578125, -160.95773315429688, -158.1339111328125, -155.31008911132812, -152.48626708984375, -149.66244506835938, -146.83863830566406, -144.0148162841797, -141.1909942626953, -138.36717224121094, -135.54335021972656, -132.71954345703125, -129.89572143554688, -127.0718994140625, -124.24807739257812, -121.42425537109375, -118.60043334960938, -115.776611328125, -112.95279693603516, -110.12897491455078, -107.3051528930664, -104.48133850097656, -101.65751647949219, -98.83369445800781, -96.00987243652344, -93.1860580444336, -90.36223602294922, -87.53841400146484, -84.714599609375, -81.89077758789062, -79.06695556640625, -76.24313354492188, -73.41931915283203, -70.59549713134766, -67.77167510986328, -64.94786071777344, -62.12403869628906, -59.30021667480469, -56.47639846801758, -53.6525764465332, -50.828758239746094, -48.00493621826172, -45.18111801147461, -42.3572998046875, -39.533477783203125, -36.709659576416016, -33.88583755493164, -31.06201934814453, -28.23819923400879, -25.414379119873047, -22.590559005737305, -19.766738891601562, -16.94291877746582, -14.119099617004395, -11.295279502868652, -8.47145938873291, -5.647639751434326, -2.823819875717163, 0.0]}, "gradients/graph_29linear.0.weight": {"_type": "histogram", "values": [2.0, 0.0, 0.0, 0.0, 0.0, 0.0, 0.0, 0.0, 0.0, 0.0, 0.0, 0.0, 1.0, 0.0, 0.0, 0.0, 0.0, 0.0, 0.0, 0.0, 0.0, 0.0, 0.0, 0.0, 0.0, 0.0, 0.0, 0.0, 0.0, 0.0, 0.0, 0.0, 0.0, 0.0, 0.0, 10.0, 3.0, 2.0, 3.0, 7.0, 16.0, 12.0, 17.0, 18.0, 16.0, 22.0, 26.0, 29.0, 23.0, 26.0, 4225.0, 39.0, 28.0, 14.0, 15.0, 11.0, 11.0, 6.0, 6.0, 7.0, 3.0, 6.0, 2.0, 2.0], "bins": [-884.67919921875, -867.2694702148438, -849.8597412109375, -832.4500732421875, -815.0403442382812, -797.630615234375, -780.2208862304688, -762.8111572265625, -745.4014892578125, -727.9917602539062, -710.58203125, -693.1723022460938, -675.7625732421875, -658.3529052734375, -640.943115234375, -623.533447265625, -606.1237182617188, -588.7139892578125, -571.3043212890625, -553.89453125, -536.48486328125, -519.0751342773438, -501.6654052734375, -484.2557067871094, -466.8459777832031, -449.4362487792969, -432.02655029296875, -414.6168212890625, -397.20709228515625, -379.7973937988281, -362.3876953125, -344.97796630859375, -327.56829833984375, -310.1585693359375, -292.74884033203125, -275.339111328125, -257.929443359375, -240.5196990966797, -223.10997009277344, -205.7002716064453, -188.29054260253906, -170.8808135986328, -153.4711151123047, -136.06138610839844, -118.65165710449219, -101.24195861816406, -83.83222961425781, -66.42253112792969, -49.01280212402344, -31.603073120117188, -14.193374633789062, 3.2163543701171875, 20.626068115234375, 38.03578186035156, 55.44551086425781, 72.855224609375, 90.26493835449219, 107.67465209960938, 125.0843734741211, 142.4940948486328, 159.90380859375, 177.3135223388672, 194.72323608398438, 212.13296508789062, 229.5426788330078]}, "Linear loss (training)": 215.0954132080078, "_runtime": 86.02812075614929, "_step": 59, "Linear loss (validation)": 34.118040656599916, "Regret (validation)": 0.6590174926790058, "_wandb": {"runtime": 83}}